{"learner":{"attributes":{"scikit_learn":"{\"_estimator_type\": \"classifier\"}"},"feature_names":["spread_bps_entry","imbalance_entry","sym_ALGOUSDT","sym_LINKUSDT","sym_SOLUSDT","sym_TRXUSDT","sym_VETUSDT","sym_XRPUSDT"],"feature_types":["float","float","i","i","i","i","i","i"],"gradient_booster":{"model":{"cats":{"enc":[],"feature_segments":[],"sorted_idx":[]},"gbtree_model_param":{"num_parallel_tree":"1","num_trees":"100"},"iteration_indptr":[0,1,2,3,4,5,6,7,8,9,10,11,12,13,14,15,16,17,18,19,20,21,22,23,24,25,26,27,28,29,30,31,32,33,34,35,36,37,38,39,40,41,42,43,44,45,46,47,48,49,50,51,52,53,54,55,56,57,58,59,60,61,62,63,64,65,66,67,68,69,70,71,72,73,74,75,76,77,78,79,80,81,82,83,84,85,86,87,88,89,90,91,92,93,94,95,96,97,98,99,100],"tree_info":[0,0,0,0,0,0,0,0,0,0,0,0,0,0,0,0,0,0,0,0,0,0,0,0,0,0,0,0,0,0,0,0,0,0,0,0,0,0,0,0,0,0,0,0,0,0,0,0,0,0,0,0,0,0,0,0,0,0,0,0,0,0,0,0,0,0,0,0,0,0,0,0,0,0,0,0,0,0,0,0,0,0,0,0,0,0,0,0,0,0,0,0,0,0,0,0,0,0,0,0],"trees":[{"base_weights":[5.0265817E-7,1.1002952E0,-3.5816705E0,-2.3458484E-1,1.1353307E-1,-4.109431E-1,-3.4273214E0,-5.4117735E-2,-1.1526068E0,-3.448052E-1,-8.452561E-2,-4.2711875E-1,2.1197894E-1,-5.5278295E-1,-1.5591413E-1,-4.1818223E-4,-1.5707919E-1,-3.1935733E-2,3.7720513E-1,-8.185313E-2,-9.355229E-3,-1.7382404E-2,4.477393E-2,6.543926E-2,-2.5917692E-2,5.9254903E-2,-5.678947E-3],"categories":[],"categories_nodes":[],"categories_segments":[],"categories_sizes":[],"default_left":[0,0,0,0,0,0,0,0,0,0,0,0,0,0,0,0,0,0,0,0,0,0,0,0,0,0,0],"id":0,"left_children":[1,3,5,7,-1,-1,9,11,13,-1,-1,15,17,19,-1,21,-1,23,25,-1,-1,-1,-1,-1,-1,-1,-1],"loss_changes":[5.56863E3,5.0821045E1,1.296582E1,4.6550355E0,0E0,0E0,1.1161133E1,2.5565736E0,2.6683187E-1,0E0,0E0,5.2095265E0,6.233785E-1,3.40693E-1,0E0,7.5981796E-1,0E0,1.2687924E0,8.8611245E-1,0E0,0E0,0E0,0E0,0E0,0E0,0E0,0E0],"parents":[2147483647,0,0,1,1,2,2,3,3,6,6,7,7,8,8,11,11,12,12,13,13,15,15,17,17,18,18],"right_children":[2,4,6,8,-1,-1,10,12,14,-1,-1,16,18,20,-1,22,-1,24,26,-1,-1,-1,-1,-1,-1,-1,-1],"split_conditions":[1E0,3.7430596E0,3.1080031E0,6.6563886E-1,1.1353307E-1,-4.109431E-1,3.356268E0,4.4528508E-1,7.196882E-1,-3.448052E-1,-8.452561E-2,4.2701465E-1,3.3325002E0,6.936164E-1,-1.5591413E-1,3.8649344E-1,-1.5707919E-1,3.2252862E0,3.352892E0,-8.185313E-2,-9.355229E-3,-1.7382404E-2,4.477393E-2,6.543926E-2,-2.5917692E-2,5.9254903E-2,-5.678947E-3],"split_indices":[5,0,0,1,0,0,0,1,1,0,0,1,0,1,0,1,0,0,0,0,0,0,0,0,0,0,0],"split_type":[0,0,0,0,0,0,0,0,0,0,0,0,0,0,0,0,0,0,0,0,0,0,0,0,0,0,0],"sum_hessian":[1.4110374E3,1.0799637E3,3.3107367E2,2.7474277E1,1.0524894E3,6.9117676E1,2.61956E2,2.3845598E1,3.628678E0,2.5953687E2,2.4191186E0,9.676475E0,1.4169124E1,2.4191186E0,1.2095593E0,7.7757387E0,1.9007361E0,6.0477967E0,8.121327E0,1.0367651E0,1.3823535E0,6.0477967E0,1.727942E0,1.0367651E0,5.0110316E0,5.183826E0,2.9375012E0],"tree_param":{"num_deleted":"0","num_feature":"8","num_nodes":"27","size_leaf_vector":"1"}},{"base_weights":[1.0202213E-2,1.0585496E0,-2.681019E0,-2.1836218E-1,1.0945877E0,-2.69148E0,-7.58932E-2,-5.9561137E-2,-1.1186506E0,1.0837533E-1,1.2223964E-1,-2.9692385E-1,-2.5780547E-1,-3.886632E-1,1.7352438E-1,-1.3191304E-1,-2.7774343E-2,4.6111085E-2,-1.2887345E-1,6.89492E-2,8.3400816E-2,-1.5753102E-2,6.8894275E-2,-4.409314E-2,2.37926E-2],"categories":[],"categories_nodes":[],"categories_segments":[],"categories_sizes":[],"default_left":[0,0,0,0,0,0,0,0,0,0,0,0,0,0,0,0,0,0,0,0,0,0,0,0,0],"id":1,"left_children":[1,3,5,7,9,11,-1,13,15,-1,-1,-1,-1,17,19,-1,-1,21,-1,-1,23,-1,-1,-1,-1],"loss_changes":[3.977902E3,4.693164E1,5.9050293E0,4.0343084E0,4.1992188E-2,4.7177734E0,0E0,2.0189016E0,3.4922075E-1,0E0,0E0,0E0,0E0,4.307724E0,6.6715E-1,0E0,0E0,1.193179E0,0E0,0E0,1.2719613E0,0E0,0E0,0E0,0E0],"parents":[2147483647,0,0,1,1,2,2,3,3,4,4,5,5,7,7,8,8,13,13,14,14,17,17,20,20],"right_children":[2,4,6,8,10,12,-1,14,16,-1,-1,-1,-1,18,20,-1,-1,22,-1,-1,24,-1,-1,-1,-1],"split_conditions":[1E0,3.7430596E0,3.356268E0,6.8268836E-1,5.8530874E0,3.1225605E0,-7.58932E-2,4.4528508E-1,3.3325002E0,1.0837533E-1,1.2223964E-1,-2.9692385E-1,-2.5780547E-1,4.1208836E-1,3.2252862E0,-1.3191304E-1,-2.7774343E-2,3.8649344E-1,-1.2887345E-1,6.89492E-2,3.3181252E0,-1.5753102E-2,6.8894275E-2,-4.409314E-2,2.37926E-2],"split_indices":[5,0,0,1,0,0,0,1,0,0,0,0,0,1,0,0,0,1,0,0,0,0,0,0,0],"split_type":[0,0,0,0,0,0,0,0,0,0,0,0,0,0,0,0,0,0,0,0,0,0,0,0,0],"sum_hessian":[1.4079304E3,1.01366907E3,3.9426138E2,2.7684546E1,9.859845E2,3.917291E2,2.5322843E0,2.443979E1,3.244755E0,9.17673E2,6.8311516E1,1.06282845E2,2.8544626E2,9.856112E0,1.4583679E1,2.160882E0,1.083873E0,7.2856097E0,2.5705023E0,1.1796323E0,1.3404047E1,6.10618E0,1.1794295E0,2.629207E0,1.0774839E1],"tree_param":{"num_deleted":"0","num_feature":"8","num_nodes":"25","size_leaf_vector":"1"}},{"base_weights":[1.5477121E-2,1.0200528E0,-2.1798842E0,-2.0060194E-1,1.0571504E0,-2.4513315E-1,-2.0990453E0,-4.2566247E-2,-9.5841867E-1,1.0458976E-1,1.1910265E-1,-2.107998E-1,-6.840173E-2,-3.4998968E-1,1.8746398E-1,-4.5615357E-1,-1.3072363E-1,1.24559235E-2,-1.24259345E-1,-2.3901178E-2,3.351862E-1,-7.4937105E-2,-2.3370082E-3,-1.4287375E-2,4.2341895E-2,4.4967957E-2,-2.6133755E-2,5.456838E-2,-7.076673E-3],"categories":[],"categories_nodes":[],"categories_segments":[],"categories_sizes":[],"default_left":[0,0,0,0,0,0,0,0,0,0,0,0,0,0,0,0,0,0,0,0,0,0,0,0,0,0,0,0,0],"id":2,"left_children":[1,3,5,7,9,-1,11,13,15,-1,-1,-1,-1,17,19,21,-1,23,-1,25,27,-1,-1,-1,-1,-1,-1,-1,-1],"loss_changes":[3.057616E3,4.328363E1,4.4052734E0,3.4197407E0,1.4526367E-1,0E0,2.8947754E0,1.8303847E0,2.6910162E-1,0E0,0E0,0E0,0E0,3.583836E0,4.7404385E-1,4.3430674E-1,0E0,6.244478E-1,0E0,9.1291565E-1,7.9504985E-1,0E0,0E0,0E0,0E0,0E0,0E0,0E0,0E0],"parents":[2147483647,0,0,1,1,2,2,3,3,4,4,6,6,7,7,8,8,13,13,14,14,15,15,17,17,19,19,20,20],"right_children":[2,4,6,8,10,-1,12,14,16,-1,-1,-1,-1,18,20,22,-1,24,-1,26,28,-1,-1,-1,-1,-1,-1,-1,-1],"split_conditions":[1E0,3.7430596E0,3.1080031E0,6.6563886E-1,5.8530874E0,-2.4513315E-1,3.356268E0,4.4528508E-1,7.196882E-1,1.0458976E-1,1.1910265E-1,-2.107998E-1,-6.840173E-2,4.2701465E-1,3.3325002E0,6.936164E-1,-1.3072363E-1,3.8649344E-1,-1.24259345E-1,5.006039E-1,3.352892E0,-7.4937105E-2,-2.3370082E-3,-1.4287375E-2,4.2341895E-2,4.4967957E-2,-2.6133755E-2,5.456838E-2,-7.076673E-3],"split_indices":[5,0,0,1,0,0,0,1,1,0,0,0,0,1,0,1,0,1,0,1,0,0,0,0,0,0,0,0,0],"split_type":[0,0,0,0,0,0,0,0,0,0,0,0,0,0,0,0,0,0,0,0,0,0,0,0,0,0,0,0,0],"sum_hessian":[1.3844099E3,9.50161E2,4.3424896E2,2.7895096E1,9.222659E2,9.2917984E1,3.4133096E2,2.3955557E1,3.9395406E0,8.588863E2,6.3379623E1,3.3869836E2,2.6326022E0,1.0029781E1,1.3925775E1,2.560447E0,1.3790936E0,7.8345666E0,2.1952145E0,6.0736403E0,7.8521347E0,1.0902625E0,1.4701844E0,6.1590176E0,1.6755494E0,1.7297192E0,4.343921E0,4.944219E0,2.9079156E0],"tree_param":{"num_deleted":"0","num_feature":"8","num_nodes":"29","size_leaf_vector":"1"}},{"base_weights":[1.8379122E-2,9.839903E-1,-1.8529037E0,-1.8722041E-1,1.0222476E0,-2.0935433E-1,-1.7820901E0,-3.8915344E-2,-8.810956E-1,1.0105026E-1,1.1633875E-1,-1.7891855E0,-6.1849337E-2,-3.192803E-1,1.7505404E-1,-4.2652005E-1,-1.189053E-1,-1.834551E-1,-1.5788232E0,5.2935723E-2,-1.0409591E-1,-1.8545348E-2,3.126713E-1,-6.9546156E-2,-2.1962584E-3,-7.611045E-1,-1.68281E-1,-1.2966794E-2,6.5308295E-2,4.283028E-2,-2.3716949E-2,5.146399E-2,-6.5297275E-3,-3.7654176E-2,-1.1200004E-1],"categories":[],"categories_nodes":[],"categories_segments":[],"categories_sizes":[],"default_left":[0,0,0,0,0,0,0,0,0,0,0,0,0,0,0,0,0,0,0,0,0,0,0,0,0,0,0,0,0,0,0,0,0,0,0],"id":3,"left_children":[1,3,5,7,9,-1,11,13,15,-1,-1,17,-1,19,21,23,-1,-1,25,27,-1,29,31,-1,-1,33,-1,-1,-1,-1,-1,-1,-1,-1,-1],"loss_changes":[2.4399387E3,4.010083E1,4.1011963E0,2.9519281E0,2.5445557E-1,0E0,1.8809814E0,1.552938E0,2.0174742E-1,0E0,0E0,5.3063965E-1,0E0,3.0517766E0,4.0009207E-1,3.7690157E-1,0E0,0E0,4.746338E0,9.955286E-1,0E0,7.9450756E-1,6.9822854E-1,0E0,0E0,9.3395567E-1,0E0,0E0,0E0,0E0,0E0,0E0,0E0,0E0,0E0],"parents":[2147483647,0,0,1,1,2,2,3,3,4,4,6,6,7,7,8,8,11,11,13,13,14,14,15,15,18,18,19,19,21,21,22,22,25,25],"right_children":[2,4,6,8,10,-1,12,14,16,-1,-1,18,-1,20,22,24,-1,-1,26,28,-1,30,32,-1,-1,34,-1,-1,-1,-1,-1,-1,-1,-1,-1],"split_conditions":[1E0,3.7430596E0,3.1080031E0,6.6563886E-1,5.8530874E0,-2.0935433E-1,3.356268E0,4.4528508E-1,7.196882E-1,1.0105026E-1,1.1633875E-1,6.688716E-1,-6.1849337E-2,4.1208836E-1,3.3325002E0,6.936164E-1,-1.189053E-1,-1.834551E-1,6.778053E-1,3.8649344E-1,-1.0409591E-1,5.006039E-1,3.352892E0,-6.9546156E-2,-2.1962584E-3,3.2005122E0,-1.68281E-1,-1.2966794E-2,6.5308295E-2,4.283028E-2,-2.3716949E-2,5.146399E-2,-6.5297275E-3,-3.7654176E-2,-1.1200004E-1],"split_indices":[5,0,0,1,0,0,0,1,1,0,0,1,0,1,0,1,0,0,1,1,0,1,0,0,0,0,0,0,0,0,0,0,0,0,0],"split_type":[0,0,0,0,0,0,0,0,0,0,0,0,0,0,0,0,0,0,0,0,0,0,0,0,0,0,0,0,0,0,0,0,0,0,0],"sum_hessian":[1.3483126E3,8.8969183E2,4.5862073E2,2.8019096E1,8.616727E2,9.77799E1,3.6084085E2,2.3955141E1,4.063956E0,8.0300977E2,5.8663E1,3.5811948E2,2.7213686E0,1.015579E1,1.3799351E1,2.604481E0,1.4594749E0,2.8823877E2,6.9880714E1,7.311454E0,2.8443363E0,6.092993E0,7.7063575E0,1.1325308E0,1.4719503E0,8.822509E0,6.10582E1,6.2068634E0,1.1045902E0,1.6866168E0,4.406376E0,4.78688E0,2.9194775E0,5.2481737E0,3.5743356E0],"tree_param":{"num_deleted":"0","num_feature":"8","num_nodes":"35","size_leaf_vector":"1"}},{"base_weights":[1.9820094E-2,9.498606E-1,-1.6198574E0,-1.7334759E-1,9.892988E-1,-1.8135743E-1,-1.5439023E0,-4.2289298E-2,-8.6292714E-1,9.7699955E-2,1.1388012E-1,-1.1021683E0,-1.5678155E0,-2.881199E-1,1.4228603E-1,-1.2275427E-1,-3.119438E-2,-1.5449119E-2,-1.1653775E0,-1.5747993E-1,-5.60787E-2,2.1992909E-2,-1.0111743E-1,6.765995E-2,5.0744686E-2,-1.5355964E-1,-9.4777036E-1,-1.1775307E-2,4.001728E-2,-4.5662783E-2,1.7235806E-2,-2.15396E-2,-1.2835144E-1],"categories":[],"categories_nodes":[],"categories_segments":[],"categories_sizes":[],"default_left":[0,0,0,0,0,0,0,0,0,0,0,0,0,0,0,0,0,0,0,0,0,0,0,0,0,0,0,0,0,0,0,0,0],"id":4,"left_children":[1,3,5,7,9,-1,11,13,15,-1,-1,17,19,21,23,-1,-1,-1,25,-1,-1,27,-1,-1,29,-1,31,-1,-1,-1,-1,-1,-1],"loss_changes":[1.9922416E3,3.7096985E1,4.1571045E0,2.5958548E0,3.6846924E-1,0E0,1.9308472E0,1.1992543E0,5.412257E-1,0E0,0E0,1.0871868E0,1.4111938E0,2.5509734E0,7.115359E-1,0E0,0E0,0E0,1.3003159E-1,0E0,0E0,5.1595575E-1,0E0,0E0,9.4871444E-1,0E0,3.4135275E0,0E0,0E0,0E0,0E0,0E0,0E0],"parents":[2147483647,0,0,1,1,2,2,3,3,4,4,6,6,7,7,8,8,11,11,12,12,13,13,14,14,18,18,21,21,24,24,26,26],"right_children":[2,4,6,8,10,-1,12,14,16,-1,-1,18,20,22,24,-1,-1,-1,26,-1,-1,28,-1,-1,30,-1,32,-1,-1,-1,-1,-1,-1],"split_conditions":[1E0,3.7430596E0,3.1225605E0,6.8268836E-1,5.8530874E0,-1.8135743E-1,3.1600568E0,4.4528508E-1,3.268508E0,9.7699955E-2,1.1388012E-1,3.2012507E-1,3.356268E0,4.2701465E-1,3.2252862E0,-1.2275427E-1,-3.119438E-2,-1.5449119E-2,4.2701465E-1,-1.5747993E-1,-5.60787E-2,3.8649344E-1,-1.0111743E-1,6.765995E-2,3.2910976E0,-1.5355964E-1,5.9095246E-1,-1.1775307E-2,4.001728E-2,-4.5662783E-2,1.7235806E-2,-2.15396E-2,-1.2835144E-1],"split_indices":[5,0,0,1,0,0,0,1,0,0,0,1,0,1,0,0,0,0,1,0,0,1,0,0,0,0,1,0,0,0,0,0,0],"split_type":[0,0,0,0,0,0,0,0,0,0,0,0,0,0,0,0,0,0,0,0,0,0,0,0,0,0,0,0,0,0,0,0,0],"sum_hessian":[1.3044077E3,8.3258075E2,4.7182693E2,2.81269E1,8.0445386E2,1.2645014E2,3.4537677E2,2.452678E1,3.6001198E0,7.5026587E2,5.418801E1,2.0155073E1,3.252217E2,1.0277493E1,1.4249288E1,1.4275321E0,2.1725876E0,1.4756205E0,1.8679453E1,3.2242188E2,2.7998228E0,7.8711824E0,2.40631E0,1.1493733E0,1.3099914E1,4.672798E0,1.4006655E1,6.2502184E0,1.620964E0,2.0002205E0,1.1099693E1,4.918735E0,9.087919E0],"tree_param":{"num_deleted":"0","num_feature":"8","num_nodes":"33","size_leaf_vector":"1"}},{"base_weights":[2.050761E-2,9.17151E-1,-1.442299E0,-1.6156627E-1,9.5783585E-1,-1.6663273E-1,-1.3787935E0,-2.9914225E-2,-7.5476813E-1,9.4122805E-2,1.0780869E0,-1.3840783E0,-5.096589E-1,-2.6336193E-1,1.5405412E-1,-8.743598E-2,-1.8136742E-2,1.0880796E-1,4.570238E-2,-1.4221756E-1,-1.2095262E0,-1.4432624E-2,-7.711836E-2,5.7897214E-2,-8.6053714E-2,4.1783962E-2,5.30871E-2,-5.3513324E-1,-1.296457E0,-1.0698999E-2,6.2025767E-2,-1.6194886E-2,2.2288486E-2,-2.012021E-2,-8.759931E-2,-8.597743E-2,-1.3580225E-1],"categories":[],"categories_nodes":[],"categories_segments":[],"categories_sizes":[],"default_left":[0,0,0,0,0,0,0,0,0,0,0,0,0,0,0,0,0,0,0,0,0,0,0,0,0,0,0,0,0,0,0,0,0,0,0,0,0],"id":5,"left_children":[1,3,5,7,9,-1,11,13,15,-1,17,19,21,23,25,-1,-1,-1,-1,-1,27,-1,-1,29,-1,-1,31,33,35,-1,-1,-1,-1,-1,-1,-1,-1],"loss_changes":[1.6500469E3,3.4384094E1,4.5041504E0,2.2580295E0,4.8651123E-1,0E0,1.0321655E0,1.1116643E0,2.0230103E-1,0E0,2.6176453E-2,7.763672E-1,2.5836706E-1,2.229379E0,3.6611047E-1,0E0,0E0,0E0,0E0,0E0,3.6413727E0,0E0,0E0,8.3820367E-1,0E0,0E0,4.6289018E-1,9.786463E-1,5.745239E-1,0E0,0E0,0E0,0E0,0E0,0E0,0E0,0E0],"parents":[2147483647,0,0,1,1,2,2,3,3,4,4,6,6,7,7,8,8,10,10,11,11,12,12,13,13,14,14,20,20,23,23,26,26,27,27,28,28],"right_children":[2,4,6,8,10,-1,12,14,16,-1,18,20,22,24,26,-1,-1,-1,-1,-1,28,-1,-1,30,-1,-1,32,34,36,-1,-1,-1,-1,-1,-1,-1,-1],"split_conditions":[1E0,3.7430596E0,3.1080031E0,6.6563886E-1,5.8258085E0,-1.6663273E-1,3.356268E0,4.4528508E-1,3.337923E0,9.4122805E-2,7.341544E-1,6.688716E-1,6.033539E-1,4.1208836E-1,4.95512E-1,-8.743598E-2,-1.8136742E-2,1.0880796E-1,4.570238E-2,-1.4221756E-1,6.778053E-1,-1.4432624E-2,-7.711836E-2,3.8649344E-1,-8.6053714E-2,4.1783962E-2,5.568908E-1,3.2005122E0,3.137255E0,-1.0698999E-2,6.2025767E-2,-1.6194886E-2,2.2288486E-2,-2.012021E-2,-8.759931E-2,-8.597743E-2,-1.3580225E-1],"split_indices":[5,0,0,1,0,0,0,1,0,0,1,1,1,1,1,0,0,0,0,0,1,0,0,1,0,0,1,0,0,0,0,0,0,0,0,0,0],"split_type":[0,0,0,0,0,0,0,0,0,0,0,0,0,0,0,0,0,0,0,0,0,0,0,0,0,0,0,0,0,0,0,0,0,0,0,0,0],"sum_hessian":[1.2560176E3,7.7893427E2,4.7708328E2,2.820253E1,7.5073175E2,9.979562E1,3.7728766E2,2.393987E1,4.262659E0,6.6738654E2,8.3345245E1,3.7441852E2,2.8691168E0,1.0360849E1,1.3579021E1,3.0927508E0,1.1699083E0,8.128544E1,2.0598104E0,3.0147226E2,7.294629E1,1.8444321E0,1.0246845E0,7.3238993E0,3.0369506E0,2.8900712E0,1.0688951E1,9.146376E0,6.379991E1,6.289524E0,1.034375E0,4.736614E0,5.9523363E0,5.423448E0,3.7229273E0,9.732504E0,5.4067406E1],"tree_param":{"num_deleted":"0","num_feature":"8","num_nodes":"37","size_leaf_vector":"1"}},{"base_weights":[2.0771455E-2,8.85612E-1,-1.3011833E0,-1.476719E-1,9.274957E-1,-1.5165969E0,-1.2372519E0,-6.488754E-2,-9.745934E-2,9.1385454E-1,1.097424E-1,-8.5189444E-1,-1.5357374E-1,-1.3169877E-1,-1.1600782E0,2.9677817E-1,-1.2515008E-1,9.7280157E-1,8.890729E-1,-1.0247689E-1,-2.4902083E-2,-8.045151E-1,-1.211188E0,-2.251789E-2,7.74527E-2,-4.8652637E-1,5.35927E-2,1.5425707E-2,9.77143E-1,6.985768E-1,9.0770446E-2,-8.85835E-1,-7.934243E-2,-1.2475966E0,-9.256482E-1,-1.7814249E-2,-8.392203E-2,1.8314885E-2,-2.9154796E-2,1.0105836E-1,8.1006676E-2,8.663213E-2,4.1305162E-2,-1.20663345E-1,-4.0430654E-2,6.04795E-2,-6.0777735E-2,-1.3490811E-1,-1.1116544E-1,-5.837323E-2,-1.16116874E-1],"categories":[],"categories_nodes":[],"categories_segments":[],"categories_sizes":[],"default_left":[0,0,0,0,0,0,0,0,0,0,0,0,0,0,0,0,0,0,0,0,0,0,0,0,0,0,0,0,0,0,0,0,0,0,0,0,0,0,0,0,0,0,0,0,0,0,0,0,0,0,0],"id":6,"left_children":[1,3,5,7,9,11,13,15,-1,17,-1,19,-1,-1,21,23,25,27,29,-1,-1,31,33,-1,-1,35,37,-1,39,41,-1,43,45,47,49,-1,-1,-1,-1,-1,-1,-1,-1,-1,-1,-1,-1,-1,-1,-1,-1],"loss_changes":[1.3803643E3,3.1723816E1,4.699585E0,1.9421718E0,6.2335205E-1,2.56958E-2,7.7142334E-1,6.408665E-1,0E0,9.259033E-2,0E0,2.8473353E-1,0E0,0E0,2.628662E0,1.234941E0,1.6052107E0,5.0086975E-1,1.0448303E0,0E0,0E0,1.5747833E0,6.267395E-1,0E0,0E0,7.412456E-1,8.2507634E-1,0E0,1.9941711E-1,1.8685646E0,0E0,3.3716831E0,1.7815669E0,5.575409E-1,1.1949005E0,0E0,0E0,0E0,0E0,0E0,0E0,0E0,0E0,0E0,0E0,0E0,0E0,0E0,0E0,0E0,0E0],"parents":[2147483647,0,0,1,1,2,2,3,3,4,4,5,5,6,6,7,7,9,9,11,11,14,14,15,15,16,16,17,17,18,18,21,21,22,22,25,25,26,26,28,28,29,29,31,31,32,32,33,33,34,34],"right_children":[2,4,6,8,10,12,14,16,-1,18,-1,20,-1,-1,22,24,26,28,30,-1,-1,32,34,-1,-1,36,38,-1,40,42,-1,44,46,48,50,-1,-1,-1,-1,-1,-1,-1,-1,-1,-1,-1,-1,-1,-1,-1,-1],"split_conditions":[1E0,3.7430596E0,3.1089694E0,7.196882E-1,5.8530874E0,2.7086172E-1,5.2214736E-1,3.2192355E-1,-9.745934E-2,3.8947153E-1,1.097424E-1,3.1031806E0,-1.5357374E-1,-1.3169877E-1,5.6460613E-1,2.6555076E-1,4.4528508E-1,5.38358E0,4.2116916E-1,-1.0247689E-1,-2.4902083E-2,3.337923E0,3.2932653E0,-2.251789E-2,7.74527E-2,4.2701465E-1,6.3996476E-1,1.5425707E-2,5.785363E0,5.7290173E0,9.0770446E-2,5.4670244E-1,5.440175E-1,6.6374516E-1,3.337923E0,-1.7814249E-2,-8.392203E-2,1.8314885E-2,-2.9154796E-2,1.0105836E-1,8.1006676E-2,8.663213E-2,4.1305162E-2,-1.20663345E-1,-4.0430654E-2,6.04795E-2,-6.0777735E-2,-1.3490811E-1,-1.1116544E-1,-5.837323E-2,-1.16116874E-1],"split_indices":[5,0,0,1,0,1,1,1,0,1,0,0,0,0,1,1,1,0,1,0,0,0,0,0,0,1,1,0,0,0,0,1,1,1,0,0,0,0,0,0,0,0,0,0,0,0,0,0,0,0,0],"split_type":[0,0,0,0,0,0,0,0,0,0,0,0,0,0,0,0,0,0,0,0,0,0,0,0,0,0,0,0,0,0,0,0,0,0,0,0,0,0,0,0,0,0,0,0,0,0,0,0,0,0,0],"sum_hessian":[1.205364E3,7.288625E2,4.7650156E2,2.8294819E1,7.005677E2,1.0385275E2,3.726488E2,2.6700283E1,1.5945365E0,6.544119E2,4.6155758E1,4.18053E0,9.9672226E1,1.753804E2,1.972684E2,3.2529492E0,2.3447334E1,1.8236722E2,4.7204468E2,2.7050488E0,1.4754813E0,2.6896257E1,1.7037215E2,1.807194E0,1.4457552E0,7.1896334E0,1.62577E1,1.1548744E0,1.8121236E2,4.548469E1,4.2656E2,2.3985056E1,2.9112024E0,1.481168E2,2.2255348E1,4.638753E0,2.5508807E0,1.2161838E1,4.0958633E0,1.4678453E2,3.442781E1,2.7370523E1,1.8114166E1,1.3491236E1,1.0493819E1,1.2057185E0,1.7054839E0,7.969698E1,6.8419815E1,1.049612E1,1.1759227E1],"tree_param":{"num_deleted":"0","num_feature":"8","num_nodes":"51","size_leaf_vector":"1"}},{"base_weights":[2.0639243E-2,-1.127228E0,8.982796E-1,-1.3772261E-1,-1.1862324E0,8.8380617E-1,1.0807719E-1,-6.0237218E-2,-8.991511E-2,-1.4111607E-1,-1.1252013E0,9.4531786E-1,8.5810596E-1,2.831333E-1,-1.1690947E-1,-1.1555951E0,-9.851561E-1,1.4692475E-2,9.4982797E-1,6.6554624E-1,8.772687E-2,-2.090047E-2,7.477936E-2,-4.4457144E-1,4.791983E-2,-1.1774152E-1,-9.269471E-1,-3.8929096E-1,-1.0641369E0,9.8480594E-1,7.778489E-1,8.356437E-1,3.854726E-1,-1.6211143E-2,-7.666282E-2,1.6796304E-2,-2.6491964E-2,-1.1342459E-1,-7.3859304E-2,-8.717721E-3,-7.198163E-2,-6.768095E-2,-1.1201423E-1,7.463716E-2,1.02455676E-1,4.484191E-2,8.395235E-2,4.4862498E-2,9.0386294E-2,5.172937E-2,-3.389093E-2],"categories":[],"categories_nodes":[],"categories_segments":[],"categories_sizes":[],"default_left":[0,0,0,0,0,0,0,0,0,0,0,0,0,0,0,0,0,0,0,0,0,0,0,0,0,0,0,0,0,0,0,0,0,0,0,0,0,0,0,0,0,0,0,0,0,0,0,0,0,0,0],"id":7,"left_children":[1,3,5,7,9,11,-1,13,-1,-1,15,17,19,21,23,25,27,-1,29,31,-1,-1,-1,33,35,-1,37,39,41,43,45,47,49,-1,-1,-1,-1,-1,-1,-1,-1,-1,-1,-1,-1,-1,-1,-1,-1,-1,-1],"loss_changes":[1.1649377E3,2.909076E1,7.7563477E-1,1.6761729E0,4.9015503E0,1.5731812E-1,0E0,5.7195395E-1,0E0,0E0,4.65271E-1,4.7511292E-1,1.0505676E0,1.1201853E0,1.3432E0,4.243164E-1,3.066803E0,0E0,2.539215E-1,1.7851582E0,0E0,0E0,0E0,6.297536E-1,6.899351E-1,0E0,3.7919235E-1,9.5914626E-1,6.4611053E-1,5.351105E-1,3.02454E-1,2.9847717E-1,1.9485364E0,0E0,0E0,0E0,0E0,0E0,0E0,0E0,0E0,0E0,0E0,0E0,0E0,0E0,0E0,0E0,0E0,0E0,0E0],"parents":[2147483647,0,0,1,1,2,2,3,3,4,4,5,5,7,7,10,10,11,11,12,12,13,13,14,14,15,15,16,16,18,18,19,19,23,23,24,24,26,26,27,27,28,28,29,29,30,30,31,31,32,32],"right_children":[2,4,6,8,10,12,-1,14,-1,-1,16,18,20,22,24,26,28,-1,30,32,-1,-1,-1,34,36,-1,38,40,42,44,46,48,50,-1,-1,-1,-1,-1,-1,-1,-1,-1,-1,-1,-1,-1,-1,-1,-1,-1,-1],"split_conditions":[3.7430596E0,1E0,5.8530874E0,7.196882E-1,3.1080031E0,3.8947153E-1,1.0807719E-1,3.2192355E-1,-8.991511E-2,-1.4111607E-1,6.688716E-1,5.38358E0,4.2116916E-1,2.6555076E-1,4.4528508E-1,3.295436E0,6.778053E-1,1.4692475E-2,5.785363E0,5.7290173E0,8.772687E-2,-2.090047E-2,7.477936E-2,4.2701465E-1,6.3996476E-1,-1.1774152E-1,4.8894873E-1,3.2005122E0,3.137255E0,5.4809537E0,5.7954216E0,5.4719563E0,4.1706017E-1,-1.6211143E-2,-7.666282E-2,1.6796304E-2,-2.6491964E-2,-1.1342459E-1,-7.3859304E-2,-8.717721E-3,-7.198163E-2,-6.768095E-2,-1.1201423E-1,7.463716E-2,1.02455676E-1,4.484191E-2,8.395235E-2,4.4862498E-2,9.0386294E-2,5.172937E-2,-3.389093E-2],"split_indices":[0,5,0,1,0,1,0,1,0,0,1,0,1,1,1,0,1,0,0,0,0,0,0,1,1,0,1,0,0,0,0,0,1,0,0,0,0,0,0,0,0,0,0,0,0,0,0,0,0,0,0],"split_type":[0,0,0,0,0,0,0,0,0,0,0,0,0,0,0,0,0,0,0,0,0,0,0,0,0,0,0,0,0,0,0,0,0,0,0,0,0,0,0,0,0,0,0,0,0,0,0,0,0,0,0],"sum_hessian":[1.1543586E3,5.000535E2,6.543052E2,2.8327925E1,4.717256E2,6.116393E2,4.2665924E1,2.6690886E1,1.6370388E0,9.595707E1,3.757685E2,1.6969756E2,4.4194174E2,3.215085E0,2.34758E1,3.0280075E2,7.296776E1,1.1418495E0,1.6855571E2,4.3233475E1,3.9870825E2,1.8285757E0,1.3865094E0,7.288977E0,1.6186823E1,2.7263367E2,3.0167065E1,9.233689E0,6.373407E1,1.3614047E2,3.2415237E1,2.5663544E1,1.756993E1,4.684126E0,2.6048512E0,1.2032714E1,4.154109E0,1.1970586E1,1.8196478E1,5.4844394E0,3.7492504E0,9.704373E0,5.4029697E1,2.2279478E1,1.13860985E2,6.4159102E0,2.5999329E1,4.9811096E0,2.0682434E1,1.51067295E1,2.4631999E0],"tree_param":{"num_deleted":"0","num_feature":"8","num_nodes":"51","size_leaf_vector":"1"}},{"base_weights":[2.0657903E-2,-1.0325906E0,8.69553E-1,-1.2835637E-1,-1.0874066E0,8.5441446E-1,1.06369294E-1,-5.57931E-2,-8.3212264E-2,-1.2829254E0,-1.0163814E0,9.1879946E-1,8.276882E-1,2.7058527E-1,-1.09178066E-1,-1.3271856E-1,-9.766149E-1,-6.483516E-1,-1.0372796E0,6.928621E-1,9.5034605E-1,6.337654E-1,8.473508E-2,-1.9406414E-2,7.226678E-2,-4.0696198E-1,4.2826157E-2,-6.225842E-1,-1.1944574E-1,9.057927E-3,-7.086836E-1,-1.0638279E-1,-8.540085E-1,7.4933136E-1,1.9861644E-3,1.00189306E-1,7.468789E-1,7.773104E-1,3.085604E-1,-1.672904E-2,-7.4827E-2,2.412806E-2,-1.2209627E-2,-8.485903E-2,1.430451E-2,-1.0858321E-1,-5.2078333E-2,-1.2512578E-1,-7.172825E-2,8.544495E-2,2.66128E-3,4.2246386E-2,8.094863E-2,4.2368256E-2,8.310708E-2,-8.3771735E-2,4.635202E-2],"categories":[],"categories_nodes":[],"categories_segments":[],"categories_sizes":[],"default_left":[0,0,0,0,0,0,0,0,0,0,0,0,0,0,0,0,0,0,0,0,0,0,0,0,0,0,0,0,0,0,0,0,0,0,0,0,0,0,0,0,0,0,0,0,0,0,0,0,0,0,0,0,0,0,0,0,0],"id":8,"left_children":[1,3,5,7,9,11,-1,13,-1,15,17,19,21,23,25,-1,27,29,31,33,35,37,-1,-1,-1,39,41,43,-1,-1,45,-1,47,49,-1,-1,51,53,55,-1,-1,-1,-1,-1,-1,-1,-1,-1,-1,-1,-1,-1,-1,-1,-1,-1,-1],"loss_changes":[9.887149E2,2.4322449E1,8.9071655E-1,1.4519856E0,5.155884E0,2.2570801E-1,0E0,5.11674E-1,0E0,3.3262634E-1,1.9889526E0,4.7499084E-1,1.0456238E0,1.0177331E0,1.1261227E0,0E0,7.181301E-1,1.0120115E0,6.765442E-1,8.658304E-1,6.870041E-1,1.7290897E0,0E0,0E0,0E0,5.5973005E-1,5.898211E-1,1.732142E0,0E0,0E0,8.354721E-1,0E0,1.6167259E0,1.5994749E0,0E0,0E0,2.996521E-1,1.91679E-1,2.9771097E0,0E0,0E0,0E0,0E0,0E0,0E0,0E0,0E0,0E0,0E0,0E0,0E0,0E0,0E0,0E0,0E0,0E0,0E0],"parents":[2147483647,0,0,1,1,2,2,3,3,4,4,5,5,7,7,9,9,10,10,11,11,12,12,13,13,14,14,16,16,17,17,18,18,19,19,20,20,21,21,25,25,26,26,27,27,30,30,32,32,33,33,36,36,37,37,38,38],"right_children":[2,4,6,8,10,12,-1,14,-1,16,18,20,22,24,26,-1,28,30,32,34,36,38,-1,-1,-1,40,42,44,-1,-1,46,-1,48,50,-1,-1,52,54,56,-1,-1,-1,-1,-1,-1,-1,-1,-1,-1,-1,-1,-1,-1,-1,-1,-1,-1],"split_conditions":[3.7430596E0,1E0,5.8530874E0,7.196882E-1,3.1225605E0,3.8947153E-1,1.06369294E-1,3.2192355E-1,-8.3212264E-2,6.953487E-1,3.1600568E0,5.4809537E0,4.2116916E-1,2.6555076E-1,4.4528508E-1,-1.3271856E-1,7.174096E-1,3.2012507E-1,3.2932653E0,5.477951E0,5.785363E0,5.755396E0,8.473508E-2,-1.9406414E-2,7.226678E-2,4.3036807E-1,5.549851E-1,3.1089694E0,-1.1944574E-1,9.057927E-3,4.2701465E-1,-1.0638279E-1,4.0588212E-1,3.6630413E-1,1.9861644E-3,1.00189306E-1,5.7954216E0,5.4719563E0,5.75871E0,-1.672904E-2,-7.4827E-2,2.412806E-2,-1.2209627E-2,-8.485903E-2,1.430451E-2,-1.0858321E-1,-5.2078333E-2,-1.2512578E-1,-7.172825E-2,8.544495E-2,2.66128E-3,4.2246386E-2,8.094863E-2,4.2368256E-2,8.310708E-2,-8.3771735E-2,4.635202E-2],"split_indices":[0,5,0,1,0,1,0,1,0,1,0,0,1,1,1,0,1,1,0,0,0,0,0,0,0,1,1,0,0,0,1,0,1,1,0,0,0,0,0,0,0,0,0,0,0,0,0,0,0,0,0,0,0,0,0,0,0],"split_type":[0,0,0,0,0,0,0,0,0,0,0,0,0,0,0,0,0,0,0,0,0,0,0,0,0,0,0,0,0,0,0,0,0,0,0,0,0,0,0,0,0,0,0,0,0,0,0,0,0,0,0,0,0,0,0,0,0],"sum_hessian":[1.1038202E3,4.9252005E2,6.113002E2,2.8341751E1,4.641783E2,5.7209094E2,3.9209232E1,2.6671055E1,1.670696E0,1.1914158E2,3.4503674E2,1.5802415E2,4.1406674E2,3.177329E0,2.3493727E1,1.0118769E2,1.7953894E1,2.0260504E1,3.247762E2,2.2174326E1,1.3584984E2,4.1178062E1,3.728887E2,1.8483412E0,1.3289878E0,7.3727775E0,1.6120949E1,8.3087435E0,9.645149E0,1.4915115E0,1.8768991E1,2.7948578E2,4.5290455E1,2.0353142E1,1.8211849E0,1.0525906E2,3.0590769E1,2.7603643E1,1.3574421E1,5.2067E0,2.1660776E0,7.106528E0,9.014421E0,6.331417E0,1.9773269E0,4.6522846E0,1.4116707E1,9.509526E0,3.578093E1,1.7609589E1,2.7435527E0,6.2019124E0,2.4388857E1,4.814636E0,2.2789005E1,1.0918314E0,1.2482589E1],"tree_param":{"num_deleted":"0","num_feature":"8","num_nodes":"57","size_leaf_vector":"1"}},{"base_weights":[2.0379355E-2,-9.503249E-1,8.411797E-1,-1.1897461E-1,-1.0018E0,8.205269E-1,9.9653476E-1,-5.736424E-2,-8.4700696E-2,-1.236787E0,-9.411242E-1,8.2428265E-1,4.8349372E-1,1.0097741E-1,3.0228246E-2,2.5901687E-1,-1.074571E-1,-6.148039E-1,-1.2575987E-1,-9.451358E-1,-3.3892116E-1,8.909875E-1,7.96884E-1,7.649515E-1,-2.1937259E-1,-1.8025221E-2,6.989709E-2,-3.7378663E-1,2.6770046E-2,-8.176231E-2,-5.632149E-3,-9.746007E-1,-8.134637E-1,-5.6206486E-3,-5.5285957E-2,9.0243614E-1,5.014138E-3,5.7888263E-1,8.1480396E-1,8.784638E-3,8.92186E-2,7.957051E-3,-4.107523E-2,-1.5211934E-2,-6.905007E-2,1.4605413E-2,-2.4637133E-2,-1.2078929E-1,-9.5496155E-2,-2.6353044E-2,-8.893491E-2,6.62181E-2,9.405199E-2,7.06302E-2,2.5242994E-2,7.9294115E-2,9.612217E-2],"categories":[],"categories_nodes":[],"categories_segments":[],"categories_sizes":[],"default_left":[0,0,0,0,0,0,0,0,0,0,0,0,0,0,0,0,0,0,0,0,0,0,0,0,0,0,0,0,0,0,0,0,0,0,0,0,0,0,0,0,0,0,0,0,0,0,0,0,0,0,0,0,0,0,0,0,0],"id":9,"left_children":[1,3,5,7,9,11,13,15,-1,17,19,21,23,-1,-1,25,27,29,-1,31,33,35,37,39,41,-1,-1,43,45,-1,-1,47,49,-1,-1,51,-1,53,55,-1,-1,-1,-1,-1,-1,-1,-1,-1,-1,-1,-1,-1,-1,-1,-1,-1,-1],"loss_changes":[8.41837E2,2.0597198E1,1.019104E0,1.2683831E0,5.333893E0,2.4822998E-1,2.6935577E-1,4.7385362E-1,0E0,3.962555E-1,5.647888E-1,2.109375E-1,1.7603139E0,0E0,0E0,9.260861E-1,9.0382373E-1,5.068785E-1,0E0,6.17157E-1,2.0986974E-1,1.285614E0,9.6073914E-1,4.3603587E-1,2.0883527E-1,0E0,0E0,4.8786652E-1,6.080322E-1,0E0,0E0,1.8389893E-1,2.7911873E0,0E0,0E0,6.2464905E-1,0E0,1.1238794E0,3.1455994E-1,0E0,0E0,0E0,0E0,0E0,0E0,0E0,0E0,0E0,0E0,0E0,0E0,0E0,0E0,0E0,0E0,0E0,0E0],"parents":[2147483647,0,0,1,1,2,2,3,3,4,4,5,5,6,6,7,7,9,9,10,10,11,11,12,12,15,15,16,16,17,17,19,19,20,20,21,21,22,22,23,23,24,24,27,27,28,28,31,31,32,32,35,35,37,37,38,38],"right_children":[2,4,6,8,10,12,14,16,-1,18,20,22,24,-1,-1,26,28,30,-1,32,34,36,38,40,42,-1,-1,44,46,-1,-1,48,50,-1,-1,52,-1,54,56,-1,-1,-1,-1,-1,-1,-1,-1,-1,-1,-1,-1,-1,-1,-1,-1,-1,-1],"split_conditions":[3.7430596E0,1E0,5.8258085E0,7.2330654E-1,3.1080031E0,5.8224163E0,7.341544E-1,3.2192355E-1,-8.4700696E-2,2.7086172E-1,3.356268E0,3.8947153E-1,5.81413E-1,1.0097741E-1,3.0228246E-2,2.6555076E-1,4.4528508E-1,2.6555076E-1,-1.2575987E-1,6.688716E-1,6.033539E-1,5.8190284E0,4.1492984E-1,3.4728333E-1,6.270324E-1,-1.8025221E-2,6.989709E-2,4.3036807E-1,6.3996476E-1,-8.176231E-2,-5.632149E-3,3.1225605E0,6.778053E-1,-5.6206486E-3,-5.5285957E-2,5.4809537E0,5.014138E-3,5.755396E0,7.036679E-1,8.784638E-3,8.92186E-2,7.957051E-3,-4.107523E-2,-1.5211934E-2,-6.905007E-2,1.4605413E-2,-2.4637133E-2,-1.2078929E-1,-9.5496155E-2,-2.6353044E-2,-8.893491E-2,6.62181E-2,9.405199E-2,7.06302E-2,2.5242994E-2,7.9294115E-2,9.612217E-2],"split_indices":[0,5,0,1,0,0,1,1,0,1,0,1,1,0,0,1,1,1,0,1,1,0,1,1,1,0,0,1,1,0,0,0,1,0,0,0,0,0,1,0,0,0,0,0,0,0,0,0,0,0,0,0,0,0,0,0,0],"split_type":[0,0,0,0,0,0,0,0,0,0,0,0,0,0,0,0,0,0,0,0,0,0,0,0,0,0,0,0,0,0,0,0,0,0,0,0,0,0,0,0,0,0,0,0,0,0,0,0,0,0,0,0,0,0,0,0,0],"sum_hessian":[1.0545795E3,4.8309653E2,5.714829E2,2.8361061E1,4.5473547E2,5.0996942E2,6.1513477E1,2.7142866E1,1.218195E0,8.934267E1,3.6539282E2,5.0291946E2,7.049978E0,5.9916405E1,1.5970721E0,3.1400313E0,2.4002834E1,3.881462E0,8.5461205E1,3.6240918E2,2.983631E0,1.3725015E2,3.656693E2,4.971032E0,2.0789456E0,1.8666153E0,1.273416E0,7.4453197E0,1.6557514E1,2.5070057E0,1.3744563E0,2.909092E2,7.1499954E1,1.8291602E0,1.1544707E0,1.3533426E2,1.9158969E0,3.0304924E1,3.3536438E2,1.0537432E0,3.9172888E0,1.0394728E0,1.0394728E0,5.2506857E0,2.1946344E0,1.184844E1,4.7090745E0,1.7890093E1,2.7301913E2,9.212284E0,6.2287674E1,2.1032993E1,1.1430126E2,2.096026E1,9.344664E0,2.9737637E2,3.7988007E1],"tree_param":{"num_deleted":"0","num_feature":"8","num_nodes":"57","size_leaf_vector":"1"}},{"base_weights":[2.0130225E-2,-8.776074E-1,8.1303483E-1,-9.2577416E-1,-1.0300595E-1,7.964224E-1,1.03350475E-1,-1.163509E0,-8.6592287E-1,-4.3287423E-2,-7.953839E-2,8.66817E-1,7.6763517E-1,-5.7959235E-1,-1.1834017E-1,-9.275659E-1,-8.0692095E-1,-1.8267627E-1,5.2405685E-2,6.3128597E-1,9.0125775E-1,5.6899726E-1,7.8852105E-1,-7.739814E-2,-5.311414E-3,-8.360954E-1,-1.0557706E0,-4.7927448E-1,-8.544551E-1,4.0256288E-2,-5.6434524E-1,3.2119453E-2,-1.6762597E-2,6.9134444E-1,-2.3816878E-3,9.595835E-1,6.7904925E-1,7.515506E-1,2.9200736E-1,7.488274E-1,8.483721E-1,-7.2966486E-2,-9.624315E-2,-7.934728E-2,-1.15109876E-1,-6.803914E-2,-2.0195233E-2,-9.5254324E-2,-7.214552E-2,-1.3145559E-2,6.214673E-2,-1.7739806E-2,-6.3856535E-2,-2.1208515E-2,9.416643E-3,8.045025E-2,-2.3438465E-3,7.857516E-2,1.0117306E-1,3.404356E-2,7.481684E-2,3.5786282E-2,8.276597E-2,4.332047E-2,-4.1911192E-2,7.616818E-2,6.635508E-3,9.51416E-2,7.787685E-2],"categories":[],"categories_nodes":[],"categories_segments":[],"categories_sizes":[],"default_left":[0,0,0,0,0,0,0,0,0,0,0,0,0,0,0,0,0,0,0,0,0,0,0,0,0,0,0,0,0,0,0,0,0,0,0,0,0,0,0,0,0,0,0,0,0,0,0,0,0,0,0,0,0,0,0,0,0,0,0,0,0,0,0,0,0,0,0,0,0],"id":10,"left_children":[1,3,5,7,9,11,-1,13,15,17,-1,19,21,23,-1,25,27,29,31,33,35,37,39,-1,-1,41,43,45,47,49,51,-1,53,55,-1,57,59,61,63,65,67,-1,-1,-1,-1,-1,-1,-1,-1,-1,-1,-1,-1,-1,-1,-1,-1,-1,-1,-1,-1,-1,-1,-1,-1,-1,-1,-1,-1],"loss_changes":[7.1826984E2,1.756189E1,1.1393127E0,5.330353E0,1.1576564E0,3.531494E-1,0E0,3.2089233E-1,5.599365E-1,3.777044E-1,0E0,5.516434E-1,1.0675964E0,4.517113E-1,0E0,1.1020508E0,2.5729904E0,9.975931E-1,3.2407436E-1,8.4118843E-1,8.8009644E-1,1.7204256E0,1.4421082E-1,0E0,0E0,6.90506E-1,7.536087E-1,1.3428421E0,1.4778748E0,8.9668995E-1,9.961247E-3,0E0,3.3595487E-1,1.5746117E0,0E0,3.1661987E-2,4.004345E-1,3.7763596E-1,1.8759928E0,1.7548828E0,1.4349365E-1,0E0,0E0,0E0,0E0,0E0,0E0,0E0,0E0,0E0,0E0,0E0,0E0,0E0,0E0,0E0,0E0,0E0,0E0,0E0,0E0,0E0,0E0,0E0,0E0,0E0,0E0,0E0,0E0],"parents":[2147483647,0,0,1,1,2,2,3,3,4,4,5,5,7,7,8,8,9,9,11,11,12,12,13,13,15,15,16,16,17,17,18,18,19,19,20,20,21,21,22,22,25,25,26,26,27,27,28,28,29,29,30,30,32,32,33,33,35,35,36,36,37,37,38,38,39,39,40,40],"right_children":[2,4,6,8,10,12,-1,14,16,18,-1,20,22,24,-1,26,28,30,32,34,36,38,40,-1,-1,42,44,46,48,50,52,-1,54,56,-1,58,60,62,64,66,68,-1,-1,-1,-1,-1,-1,-1,-1,-1,-1,-1,-1,-1,-1,-1,-1,-1,-1,-1,-1,-1,-1,-1,-1,-1,-1,-1,-1],"split_conditions":[3.7430596E0,1E0,5.8530874E0,3.1080031E0,7.2330654E-1,3.8947153E-1,1.03350475E-1,2.7086172E-1,5.2214736E-1,4.4528508E-1,-7.953839E-2,5.4809537E0,4.2116916E-1,2.6555076E-1,-1.1834017E-1,3.194378E0,5.6460613E-1,4.1208836E-1,4.95512E-1,5.477951E0,5.785363E0,5.7290173E0,5.742176E0,-7.739814E-2,-5.311414E-3,4.0745968E-1,3.4343377E-1,5.4670244E-1,3.1933577E0,3.8649344E-1,4.3036807E-1,3.2119453E-2,5.568908E-1,3.6630413E-1,-2.3816878E-3,2.9357737E-1,5.7954216E0,5.4719563E0,4.1706017E-1,5.738881E0,5.28509E-1,-7.2966486E-2,-9.624315E-2,-7.934728E-2,-1.15109876E-1,-6.803914E-2,-2.0195233E-2,-9.5254324E-2,-7.214552E-2,-1.3145559E-2,6.214673E-2,-1.7739806E-2,-6.3856535E-2,-2.1208515E-2,9.416643E-3,8.045025E-2,-2.3438465E-3,7.857516E-2,1.0117306E-1,3.404356E-2,7.481684E-2,3.5786282E-2,8.276597E-2,4.332047E-2,-4.1911192E-2,7.616818E-2,6.635508E-3,9.51416E-2,7.787685E-2],"split_indices":[0,7,0,0,1,1,0,1,1,1,0,0,1,1,0,0,1,1,1,0,0,0,0,0,0,1,1,1,0,1,1,0,1,1,0,1,0,0,1,0,1,0,0,0,0,0,0,0,0,0,0,0,0,0,0,0,0,0,0,0,0,0,0,0,0,0,0,0,0],"split_type":[0,0,0,0,0,0,0,0,0,0,0,0,0,0,0,0,0,0,0,0,0,0,0,0,0,0,0,0,0,0,0,0,0,0,0,0,0,0,0,0,0,0,0,0,0,0,0,0,0,0,0,0,0,0,0,0,0,0,0,0,0,0,0,0,0,0,0,0,0],"sum_hessian":[1.0070583E3,4.7225632E2,5.34802E2,4.444256E2,2.7830713E1,5.0161743E2,3.3184563E1,8.5675354E1,3.5875024E2,2.6599031E1,1.2316823E0,1.3714374E2,3.644737E2,3.815447E0,8.185991E1,1.6824896E2,1.9050128E2,1.0457462E1,1.614157E1,1.9961578E1,1.1718217E2,3.7363823E1,3.2710986E2,2.4432325E0,1.3722146E0,1.025815E2,6.566746E1,2.5540037E1,1.6496124E2,7.16621E0,3.2912526E0,2.5578935E0,1.3583675E1,1.823455E1,1.7270273E0,9.0190414E1,2.6991747E1,2.1488382E1,1.5875441E1,2.0479797E2,1.2231188E2,5.93545E1,4.3226997E1,1.9989468E1,4.567799E1,1.3961546E1,1.1578491E1,9.1395E1,7.3566246E1,6.1292276E0,1.0369825E0,1.0753043E0,2.2159483E0,4.5899115E0,8.993764E0,1.5633996E1,2.6005547E0,2.4520254E1,6.567016E1,5.580127E0,2.1411621E1,4.4049506E0,1.7083431E1,1.3571537E1,2.3039033E0,2.00898E2,3.8999772E0,4.4203026E1,7.810886E1],"tree_param":{"num_deleted":"0","num_feature":"8","num_nodes":"69","size_leaf_vector":"1"}},{"base_weights":[1.980558E-2,-8.1232667E-1,7.852067E-1,-1.0239304E-1,-8.585308E-1,7.6794916E-1,1.0191804E-1,-9.961774E-3,-4.9179247E-1,-1.1057953E0,-7.980451E-1,8.414879E-1,7.381189E-1,-6.492789E-2,6.437736E-2,-6.0072895E-2,-6.3644997E-3,-5.46999E-1,-1.125412E-1,-8.265051E-1,-6.7213875E-1,6.0161114E-1,8.774214E-1,5.393208E-1,7.594491E-1,-1.0961054E-2,-5.5477586E-2,-7.443142E-2,-3.032946E-3,-8.3195186E-1,-2.4909373E-1,-1.6421904E-1,-7.454564E-1,6.619568E-1,-2.2280505E-3,9.388326E-1,6.494086E-1,7.233325E-1,2.6954922E-1,7.1864283E-1,8.2146347E-1,-2.8799286E-2,9.042459E-3,-1.07535265E-1,-8.12267E-2,9.7016984E-4,-4.7531284E-2,1.15643805E-2,-5.1690258E-2,-5.068298E-2,-8.36431E-2,7.7714115E-2,-2.1715786E-3,7.58039E-2,9.9415384E-2,3.1914737E-2,7.1911976E-2,3.3674397E-2,8.010094E-2,4.0604524E-2,-3.8084995E-2,7.317486E-2,6.1348653E-3,9.294566E-2,7.495135E-2],"categories":[],"categories_nodes":[],"categories_segments":[],"categories_sizes":[],"default_left":[0,0,0,0,0,0,0,0,0,0,0,0,0,0,0,0,0,0,0,0,0,0,0,0,0,0,0,0,0,0,0,0,0,0,0,0,0,0,0,0,0,0,0,0,0,0,0,0,0,0,0,0,0,0,0,0,0,0,0,0,0,0,0,0,0],"id":11,"left_children":[1,3,5,7,9,11,-1,13,15,17,19,21,23,25,-1,-1,-1,27,-1,29,31,33,35,37,39,41,-1,-1,-1,43,45,47,49,51,-1,53,55,57,59,61,63,-1,-1,-1,-1,-1,-1,-1,-1,-1,-1,-1,-1,-1,-1,-1,-1,-1,-1,-1,-1,-1,-1,-1,-1],"loss_changes":[6.140886E2,1.5065094E1,1.2451172E0,1.0519683E0,5.6023254E0,4.1378784E-1,0E0,9.311905E-1,2.2352481E-1,2.9013062E-1,7.056732E-1,5.8408356E-1,1.048111E0,6.2149614E-1,0E0,0E0,0E0,4.6146154E-1,0E0,6.8193054E-1,2.4934673E0,7.672787E-1,9.307785E-1,1.6298523E0,1.8907166E-1,6.5530854E-1,0E0,0E0,0E0,4.6643066E-1,2.4284941E-1,1.0609492E0,9.0252686E-1,1.4546442E0,0E0,9.0797424E-2,3.8260174E-1,3.6867523E-1,1.6195096E0,1.6241684E0,1.9884491E-1,0E0,0E0,0E0,0E0,0E0,0E0,0E0,0E0,0E0,0E0,0E0,0E0,0E0,0E0,0E0,0E0,0E0,0E0,0E0,0E0,0E0,0E0,0E0,0E0],"parents":[2147483647,0,0,1,1,2,2,3,3,4,4,5,5,7,7,8,8,9,9,10,10,11,11,12,12,13,13,17,17,19,19,20,20,21,21,22,22,23,23,24,24,25,25,29,29,30,30,31,31,32,32,33,33,35,35,36,36,37,37,38,38,39,39,40,40],"right_children":[2,4,6,8,10,12,-1,14,16,18,20,22,24,26,-1,-1,-1,28,-1,30,32,34,36,38,40,42,-1,-1,-1,44,46,48,50,52,-1,54,56,58,60,62,64,-1,-1,-1,-1,-1,-1,-1,-1,-1,-1,-1,-1,-1,-1,-1,-1,-1,-1,-1,-1,-1,-1,-1,-1],"split_conditions":[3.7430596E0,1E0,5.8530874E0,6.6563886E-1,3.1080031E0,3.8947153E-1,1.0191804E-1,6.477416E-1,3.337923E0,2.7086172E-1,6.688716E-1,5.4809537E0,4.2116916E-1,6.270324E-1,6.437736E-2,-6.0072895E-2,-6.3644997E-3,3.1031806E0,-1.125412E-1,3.356268E0,6.778053E-1,5.477951E0,5.785363E0,5.7290173E0,5.742176E0,3.2910976E0,-5.5477586E-2,-7.443142E-2,-3.032946E-3,3.1225605E0,6.033539E-1,3.2005122E0,3.1700745E0,3.6630413E-1,-2.2280505E-3,2.9357737E-1,5.7954216E0,5.4719563E0,4.1706017E-1,5.738881E0,5.28509E-1,-2.8799286E-2,9.042459E-3,-1.07535265E-1,-8.12267E-2,9.7016984E-4,-4.7531284E-2,1.15643805E-2,-5.1690258E-2,-5.068298E-2,-8.36431E-2,7.7714115E-2,-2.1715786E-3,7.58039E-2,9.9415384E-2,3.1914737E-2,7.1911976E-2,3.3674397E-2,8.010094E-2,4.0604524E-2,-3.8084995E-2,7.317486E-2,6.1348653E-3,9.294566E-2,7.495135E-2],"split_indices":[0,5,0,1,0,1,0,1,0,1,1,0,1,1,0,0,0,0,0,0,1,0,0,0,0,0,0,0,0,0,1,0,0,1,0,1,0,0,1,0,1,0,0,0,0,0,0,0,0,0,0,0,0,0,0,0,0,0,0,0,0,0,0,0,0],"split_type":[0,0,0,0,0,0,0,0,0,0,0,0,0,0,0,0,0,0,0,0,0,0,0,0,0,0,0,0,0,0,0,0,0,0,0,0,0,0,0,0,0,0,0,0,0,0,0,0,0,0,0,0,0,0,0,0,0,0,0,0,0,0,0,0,0],"sum_hessian":[9.621596E2,4.6095508E2,5.0120453E2,2.83634E1,4.3259167E2,4.7076392E2,3.0440626E1,2.375119E1,4.6122084E0,8.16257E1,3.5096597E2,1.2800128E2,3.4276263E2,2.2739899E1,1.0112908E0,3.3553863E0,1.2568222E0,3.7479293E0,7.787777E1,2.8172098E2,6.9245E1,1.8987991E1,1.0901328E2,3.576038E1,3.0700226E2,2.1404167E1,1.335733E0,2.3933232E0,1.3546062E0,2.786516E2,3.0693533E0,9.143283E0,6.0101723E1,1.7257732E1,1.7302588E0,8.342642E1,2.558686E1,2.0259834E1,1.55005455E1,1.9275505E2,1.1424721E2,5.241481E0,1.6162685E1,1.6836973E1,2.6181464E2,1.8780133E0,1.19134E0,5.4726815E0,3.670601E0,1.840265E1,4.169907E1,1.4652397E1,2.6053343E0,2.299144E1,6.0434986E1,5.4317446E0,2.0155115E1,4.2823358E0,1.5977498E1,1.3122327E1,2.3782187E0,1.8887582E2,3.879231E0,4.0916115E1,7.3331085E1],"tree_param":{"num_deleted":"0","num_feature":"8","num_nodes":"65","size_leaf_vector":"1"}},{"base_weights":[1.9605385E-2,-7.530247E-1,7.574344E-1,-9.442446E-2,-7.9718614E-1,7.39555E-1,1.00541614E-1,-3.549019E-2,-6.5873116E-2,-1.0503867E0,-7.369631E-1,8.16239E-1,7.087153E-1,2.5961542E-1,-8.371772E-2,-5.164162E-1,-1.0697091E0,-7.585434E-1,-5.710261E-1,5.725712E-1,8.5366344E-1,5.104633E-1,7.304289E-1,-1.5919158E-2,6.8493634E-2,-6.980331E-2,-2.4266785E-2,-7.063316E-2,-2.8390537E-3,-1.1049803E-1,-7.361768E-1,-7.874313E-1,-6.4372665E-1,-9.8287076E-1,-4.4048432E-1,6.33027E-1,-2.084432E-3,9.1828156E-1,6.2015575E-1,7.901364E-1,3.277577E-1,6.885674E-1,7.94583E-1,4.0377583E-2,-7.208401E-3,-1.4405476E-2,-9.168671E-2,-7.6515384E-2,-1.13562964E-1,-5.1017154E-2,-9.25466E-2,-4.3065384E-2,-1.13616146E-1,-2.5501663E-2,-7.657569E-2,7.499675E-2,-2.012053E-3,7.303939E-2,9.7702496E-2,2.9888008E-2,6.9027245E-2,3.165894E-2,9.730072E-2,-2.5323758E-2,3.9618894E-2,7.018884E-2,5.670454E-3,9.0771936E-2,7.2032124E-2],"categories":[],"categories_nodes":[],"categories_segments":[],"categories_sizes":[],"default_left":[0,0,0,0,0,0,0,0,0,0,0,0,0,0,0,0,0,0,0,0,0,0,0,0,0,0,0,0,0,0,0,0,0,0,0,0,0,0,0,0,0,0,0,0,0,0,0,0,0,0,0,0,0,0,0,0,0,0,0,0,0,0,0,0,0,0,0,0,0],"id":12,"left_children":[1,3,5,7,9,11,-1,13,-1,15,17,19,21,23,25,27,29,31,33,35,37,39,41,-1,-1,-1,43,-1,-1,-1,45,47,49,51,53,55,-1,57,59,61,63,65,67,-1,-1,-1,-1,-1,-1,-1,-1,-1,-1,-1,-1,-1,-1,-1,-1,-1,-1,-1,-1,-1,-1,-1,-1,-1,-1],"loss_changes":[5.252795E2,1.3016144E1,1.3461304E0,9.550233E-1,5.656128E0,4.701233E-1,0E0,4.158875E-1,0E0,2.593155E-1,7.987671E-1,6.108322E-1,1.0210876E0,8.454213E-1,8.8004655E-1,4.1378915E-1,6.878662E-2,4.9273682E-1,1.9130774E0,6.981087E-1,9.770279E-1,1.544055E0,2.3045349E-1,0E0,0E0,0E0,5.086519E-1,0E0,0E0,0E0,9.558425E-1,9.641876E-1,2.0136967E0,3.3098888E-1,1.912929E0,1.3408957E0,0E0,1.4946747E-1,3.6351395E-1,8.3800125E-1,1.0168259E0,1.4980011E0,2.5211334E-1,0E0,0E0,0E0,0E0,0E0,0E0,0E0,0E0,0E0,0E0,0E0,0E0,0E0,0E0,0E0,0E0,0E0,0E0,0E0,0E0,0E0,0E0,0E0,0E0,0E0,0E0],"parents":[2147483647,0,0,1,1,2,2,3,3,4,4,5,5,7,7,9,9,10,10,11,11,12,12,13,13,14,14,15,15,16,16,17,17,18,18,19,19,20,20,21,21,22,22,26,26,30,30,31,31,32,32,33,33,34,34,35,35,37,37,38,38,39,39,40,40,41,41,42,42],"right_children":[2,4,6,8,10,12,-1,14,-1,16,18,20,22,24,26,28,30,32,34,36,38,40,42,-1,-1,-1,44,-1,-1,-1,46,48,50,52,54,56,-1,58,60,62,64,66,68,-1,-1,-1,-1,-1,-1,-1,-1,-1,-1,-1,-1,-1,-1,-1,-1,-1,-1,-1,-1,-1,-1,-1,-1,-1,-1],"split_conditions":[3.7430596E0,1E0,5.8530874E0,7.196882E-1,3.1080031E0,3.8947153E-1,1.00541614E-1,3.2192355E-1,-6.5873116E-2,2.7086172E-1,3.2932653E0,5.4809537E0,4.2116916E-1,2.6555076E-1,3.4894392E-1,2.6555076E-1,7.036679E-1,6.6374516E-1,4.0588212E-1,5.477951E0,5.785363E0,5.6545095E0,5.742176E0,-1.5919158E-2,6.8493634E-2,-6.980331E-2,3.7555394E-1,-7.063316E-2,-2.8390537E-3,-1.1049803E-1,7.142885E-1,6.49821E-1,7.2330654E-1,3.4149635E-1,3.3472803E0,3.6630413E-1,-2.084432E-3,2.9357737E-1,5.7954216E0,5.4719563E0,5.667328E0,5.738881E0,5.28509E-1,4.0377583E-2,-7.208401E-3,-1.4405476E-2,-9.168671E-2,-7.6515384E-2,-1.13562964E-1,-5.1017154E-2,-9.25466E-2,-4.3065384E-2,-1.13616146E-1,-2.5501663E-2,-7.657569E-2,7.499675E-2,-2.012053E-3,7.303939E-2,9.7702496E-2,2.9888008E-2,6.9027245E-2,3.165894E-2,9.730072E-2,-2.5323758E-2,3.9618894E-2,7.018884E-2,5.670454E-3,9.0771936E-2,7.2032124E-2],"split_indices":[0,5,0,1,0,1,0,1,0,1,0,0,1,1,1,1,1,1,1,0,0,0,0,0,0,0,1,0,0,0,1,1,1,1,0,1,0,1,0,0,0,0,1,0,0,0,0,0,0,0,0,0,0,0,0,0,0,0,0,0,0,0,0,0,0,0,0,0,0],"split_type":[0,0,0,0,0,0,0,0,0,0,0,0,0,0,0,0,0,0,0,0,0,0,0,0,0,0,0,0,0,0,0,0,0,0,0,0,0,0,0,0,0,0,0,0,0,0,0,0,0,0,0,0,0,0,0,0,0,0,0,0,0,0,0,0,0,0,0,0,0],"sum_hessian":[9.1943097E2,4.4911356E2,4.703174E2,2.841942E1,4.2069415E2,4.4240256E2,2.7914846E1,2.6694435E1,1.7249843E0,7.767543E1,3.430187E2,1.1958429E2,3.2281827E2,3.1340373E0,2.3560398E1,3.6808982E0,7.399454E1,3.003824E2,4.2636337E1,1.809146E1,1.01492836E2,3.4285812E1,2.8853247E2,1.8943822E0,1.239655E0,1.1311125E0,2.2429287E1,2.327735E0,1.3531632E0,6.482616E1,9.168377E0,2.3531816E2,6.50642E1,8.690287E0,3.3946053E1,1.6358175E1,1.7332847E0,7.719755E1,2.4295284E1,1.2234083E1,2.2051731E1,1.8170226E2,1.0683019E2,1.5057957E0,2.092349E1,2.563859E0,6.604518E0,2.2417322E2,1.114495E1,4.604699E1,1.9017218E1,2.7158952E0,5.974391E0,2.2755224E1,1.1190827E1,1.3748405E1,2.609769E0,2.1586819E1,5.561073E1,5.2952027E0,1.900008E1,4.1691694E0,8.064913E0,2.039062E0,2.0012669E1,1.7784215E2,3.8601146E0,3.7886932E1,6.894326E1],"tree_param":{"num_deleted":"0","num_feature":"8","num_nodes":"69","size_leaf_vector":"1"}},{"base_weights":[1.9035295E-2,-6.9896096E-1,7.296602E-1,-7.408732E-1,-8.0002464E-2,7.111944E-1,9.9205986E-2,-9.9621177E-1,-6.8179494E-1,-2.8219234E-2,-6.829311E-2,7.909732E-1,6.7940396E-1,-4.87928E-1,-1.0151165E0,-7.020881E-1,-5.27196E-1,-1.6495651E-1,6.452234E-2,5.441693E-1,8.2986605E-1,4.82736E-1,7.014215E-1,-6.809616E-2,-8.2312134E-4,-1.049336E-1,-6.953006E-1,-7.280434E-1,-5.995465E-1,-9.280184E-1,-4.029978E-1,4.0660758E-2,-5.145603E-1,2.0303091E-1,-4.643654E-2,6.28848E-1,8.651639E-2,8.9777845E-1,5.9130293E-1,6.7304295E-1,2.1817704E-1,8.5954934E-1,6.81467E-1,-1.3436739E-2,-8.722421E-2,-7.063928E-2,-1.07206605E-1,-2.2949671E-2,-6.833451E-2,-4.0232625E-2,-1.0781677E-1,2.7155567E-2,-4.6775844E-2,-2.3583481E-2,3.26131E-2,-1.6087255E-2,-5.837937E-2,-2.5883881E-2,4.5568418E-2,4.7215525E-2,-2.797212E-2,7.747683E-2,-1.5476654E-2,-8.081424E-2,7.2440185E-2,7.0278525E-2,9.6016996E-2,2.7961819E-2,6.61613E-2,2.9738327E-2,7.538583E-2,3.5397615E-2,-3.8223963E-2,8.8944875E-2,5.4690535E-3,3.64046E-2,6.994604E-2],"categories":[],"categories_nodes":[],"categories_segments":[],"categories_sizes":[],"default_left":[0,0,0,0,0,0,0,0,0,0,0,0,0,0,0,0,0,0,0,0,0,0,0,0,0,0,0,0,0,0,0,0,0,0,0,0,0,0,0,0,0,0,0,0,0,0,0,0,0,0,0,0,0,0,0,0,0,0,0,0,0,0,0,0,0,0,0,0,0,0,0,0,0,0,0,0,0],"id":13,"left_children":[1,3,5,7,9,11,-1,13,15,17,-1,19,21,23,25,27,29,31,33,35,37,39,41,-1,-1,-1,43,45,47,49,51,53,55,57,59,61,63,65,67,69,71,73,75,-1,-1,-1,-1,-1,-1,-1,-1,-1,-1,-1,-1,-1,-1,-1,-1,-1,-1,-1,-1,-1,-1,-1,-1,-1,-1,-1,-1,-1,-1,-1,-1,-1,-1],"loss_changes":[4.4976392E2,1.1315964E1,1.4410248E0,5.514084E0,8.8396585E-1,5.212555E-1,0E0,2.2512054E-1,6.8582153E-1,3.6172128E-1,0E0,6.3162994E-1,9.8457336E-1,4.216472E-1,5.1368713E-2,3.4736633E-1,1.770052E0,8.454186E-1,2.7400315E-1,6.535106E-1,1.0177002E0,1.5635796E0,2.743683E-1,0E0,0E0,0E0,8.615613E-1,9.5848083E-1,1.8636227E0,3.0982876E-1,1.6406178E0,7.2011274E-1,1.1888504E-2,1.0331873E0,1.3868698E0,1.8642969E0,2.8748739E0,2.0689774E-1,3.433485E-1,3.6111832E-1,1.4148521E0,5.943241E-1,1.1554108E0,0E0,0E0,0E0,0E0,0E0,0E0,0E0,0E0,0E0,0E0,0E0,0E0,0E0,0E0,0E0,0E0,0E0,0E0,0E0,0E0,0E0,0E0,0E0,0E0,0E0,0E0,0E0,0E0,0E0,0E0,0E0,0E0,0E0,0E0],"parents":[2147483647,0,0,1,1,2,2,3,3,4,4,5,5,7,7,8,8,9,9,11,11,12,12,13,13,14,14,15,15,16,16,17,17,18,18,19,19,20,20,21,21,22,22,26,26,27,27,28,28,29,29,30,30,31,31,32,32,33,33,34,34,35,35,36,36,37,37,38,38,39,39,40,40,41,41,42,42],"right_children":[2,4,6,8,10,12,-1,14,16,18,-1,20,22,24,26,28,30,32,34,36,38,40,42,-1,-1,-1,44,46,48,50,52,54,56,58,60,62,64,66,68,70,72,74,76,-1,-1,-1,-1,-1,-1,-1,-1,-1,-1,-1,-1,-1,-1,-1,-1,-1,-1,-1,-1,-1,-1,-1,-1,-1,-1,-1,-1,-1,-1,-1,-1,-1,-1],"split_conditions":[3.7430596E0,1E0,5.8530874E0,3.1080031E0,7.2330654E-1,3.8947153E-1,9.9205986E-2,2.7086172E-1,3.2932653E0,4.4528508E-1,-6.829311E-2,5.4809537E0,4.2116916E-1,3.1031806E0,7.036679E-1,6.6374516E-1,4.0588212E-1,4.1208836E-1,5.549851E-1,5.474952E0,5.785363E0,5.7290173E0,5.4600053E0,-6.809616E-2,-8.2312134E-4,-1.049336E-1,7.142885E-1,6.49821E-1,6.778053E-1,3.4149635E-1,4.3036807E-1,3.45193E-1,4.3036807E-1,3.3181252E0,3.3181252E0,3.6630413E-1,2.912761E-1,2.9357737E-1,5.7954216E0,5.4719563E0,4.1706017E-1,7.408204E-1,5.483959E0,-1.3436739E-2,-8.722421E-2,-7.063928E-2,-1.07206605E-1,-2.2949671E-2,-6.833451E-2,-4.0232625E-2,-1.0781677E-1,2.7155567E-2,-4.6775844E-2,-2.3583481E-2,3.26131E-2,-1.6087255E-2,-5.837937E-2,-2.5883881E-2,4.5568418E-2,4.7215525E-2,-2.797212E-2,7.747683E-2,-1.5476654E-2,-8.081424E-2,7.2440185E-2,7.0278525E-2,9.6016996E-2,2.7961819E-2,6.61613E-2,2.9738327E-2,7.538583E-2,3.5397615E-2,-3.8223963E-2,8.8944875E-2,5.4690535E-3,3.64046E-2,6.994604E-2],"split_indices":[0,7,0,0,1,1,0,1,0,1,0,0,1,0,1,1,1,1,1,0,0,0,0,0,0,0,1,1,1,1,1,1,1,0,0,1,1,1,0,0,1,1,0,0,0,0,0,0,0,0,0,0,0,0,0,0,0,0,0,0,0,0,0,0,0,0,0,0,0,0,0,0,0,0,0,0,0],"split_type":[0,0,0,0,0,0,0,0,0,0,0,0,0,0,0,0,0,0,0,0,0,0,0,0,0,0,0,0,0,0,0,0,0,0,0,0,0,0,0,0,0,0,0,0,0,0,0,0,0,0,0,0,0,0,0,0,0,0,0,0,0,0,0,0,0,0,0,0,0,0,0,0,0,0,0,0,0],"sum_hessian":[8.794998E2,4.3748907E2,4.4201077E2,4.0955917E2,2.7929905E1,4.164167E2,2.5594082E1,7.3974754E1,3.355844E2,2.6684849E1,1.2450562E0,1.1184875E2,3.0456793E2,3.6140769E0,7.036067E1,2.9351532E2,4.2069103E1,1.0469723E1,1.6215126E1,1.726718E1,9.4581566E1,3.29724E1,2.7159552E2,2.277876E0,1.3362011E0,6.1499325E1,8.861349E0,2.2935985E2,6.415546E1,8.420788E0,3.3648315E1,7.14886E0,3.3208625E0,6.843138E0,9.371988E0,1.4255449E1,3.011731E0,7.147213E1,2.3109432E1,1.8279364E1,1.4693036E1,2.5718176E1,2.4587737E2,2.5468407E0,6.314509E0,2.186526E2,1.0707252E1,1.25359745E1,5.161948E1,2.6882796E0,5.732508E0,2.6677322E0,3.0980585E1,3.7198386E0,3.4290211E0,1.087722E0,2.2331405E0,2.411057E0,4.432081E0,2.590147E0,6.7818413E0,1.2027116E1,2.2283332E0,1.1424677E0,1.8692633E0,2.0298147E1,5.1173985E1,5.169584E0,1.7939848E1,4.0647388E0,1.4214625E1,1.2317563E1,2.3754733E0,2.4695667E1,1.0225079E0,1.4329172E1,2.3154819E2],"tree_param":{"num_deleted":"0","num_feature":"8","num_nodes":"77","size_leaf_vector":"1"}},{"base_weights":[1.844584E-2,-6.4913255E-1,7.0179254E-1,-8.003593E-2,-6.895733E-1,6.764967E-1,9.062853E-1,-3.2230183E-2,-6.451523E-2,-9.548377E-1,-6.300355E-1,6.584995E-1,8.6978483E-1,9.2528075E-2,1.2468316E-2,2.6598963E-1,-8.020655E-2,-4.6107283E-1,-9.7395325E-1,-6.9306815E-1,-5.716524E-1,6.7105055E-1,-5.6847846E-3,9.502869E-2,4.1969982E-1,-1.3142436E-2,6.727068E-2,-6.451019E-2,-2.5492938E-2,-6.471659E-2,-7.6968985E-4,-1.00882426E-1,-6.570565E-1,-5.981807E-1,-8.289055E-1,-2.5096285E-1,-6.201068E-1,7.575241E-1,6.3250875E-1,-9.1286585E-2,2.859731E-1,5.205283E-3,4.8228398E-1,3.688218E-2,-6.74112E-3,-1.2531305E-2,-8.305929E-2,-7.4651025E-2,-5.009703E-2,-5.6881618E-2,-9.280598E-2,-4.560638E-2,8.221359E-4,-7.171583E-2,-4.929515E-2,8.122161E-2,4.4874262E-2,4.2751342E-2,6.536815E-2,6.569745E-2,-5.6209207E-2,6.854573E-2,1.7842008E-2],"categories":[],"categories_nodes":[],"categories_segments":[],"categories_sizes":[],"default_left":[0,0,0,0,0,0,0,0,0,0,0,0,0,0,0,0,0,0,0,0,0,0,0,0,0,0,0,0,0,0,0,0,0,0,0,0,0,0,0,0,0,0,0,0,0,0,0,0,0,0,0,0,0,0,0,0,0,0,0,0,0,0,0],"id":14,"left_children":[1,3,5,7,9,11,13,15,-1,17,19,21,23,-1,-1,25,27,29,31,33,35,37,39,-1,41,-1,-1,-1,43,-1,-1,-1,45,47,49,51,53,55,57,-1,59,-1,61,-1,-1,-1,-1,-1,-1,-1,-1,-1,-1,-1,-1,-1,-1,-1,-1,-1,-1,-1,-1],"loss_changes":[3.84976E2,9.769531E0,1.5440216E0,7.7492845E-1,5.6910095E0,7.319031E-1,5.224838E-1,4.249375E-1,0E0,2.2198486E-1,8.121033E-1,2.8983002E0,6.4575195E-1,0E0,0E0,7.577334E-1,7.5835085E-1,3.7880015E-1,8.355713E-2,1.4784775E0,2.581768E0,6.56662E-1,2.2272708E0,0E0,1.1674929E-1,0E0,0E0,0E0,4.1983598E-1,0E0,0E0,0E0,7.784333E-1,9.781532E-1,1.029808E0,1.3222772E0,1.5267067E0,1.3243828E0,7.699661E-1,0E0,2.3781593E0,0E0,1.9548261E-1,0E0,0E0,0E0,0E0,0E0,0E0,0E0,0E0,0E0,0E0,0E0,0E0,0E0,0E0,0E0,0E0,0E0,0E0,0E0,0E0],"parents":[2147483647,0,0,1,1,2,2,3,3,4,4,5,5,6,6,7,7,9,9,10,10,11,11,12,12,15,15,16,16,17,17,18,18,19,19,20,20,21,21,22,22,24,24,28,28,32,32,33,33,34,34,35,35,36,36,37,37,38,38,40,40,42,42],"right_children":[2,4,6,8,10,12,14,16,-1,18,20,22,24,-1,-1,26,28,30,32,34,36,38,40,-1,42,-1,-1,-1,44,-1,-1,-1,46,48,50,52,54,56,58,-1,60,-1,62,-1,-1,-1,-1,-1,-1,-1,-1,-1,-1,-1,-1,-1,-1,-1,-1,-1,-1,-1,-1],"split_conditions":[3.7430596E0,1E0,5.8258085E0,7.2330654E-1,3.1080031E0,7.036679E-1,7.341544E-1,3.2192355E-1,-6.451523E-2,2.7086172E-1,5.2214736E-1,6.9157445E-1,7.408204E-1,9.2528075E-2,1.2468316E-2,2.6555076E-1,3.4894392E-1,2.6555076E-1,7.036679E-1,3.194378E0,5.6460613E-1,3.8947153E-1,6.936164E-1,9.502869E-2,5.4540496E0,-1.3142436E-2,6.727068E-2,-6.451019E-2,3.7555394E-1,-6.471659E-2,-7.6968985E-4,-1.00882426E-1,7.142885E-1,3.1660597E0,3.4343377E-1,5.4670244E-1,3.1933577E0,5.785363E0,4.1492984E-1,-9.1286585E-2,5.752085E0,5.205283E-3,5.667328E0,3.688218E-2,-6.74112E-3,-1.2531305E-2,-8.305929E-2,-7.4651025E-2,-5.009703E-2,-5.6881618E-2,-9.280598E-2,-4.560638E-2,8.221359E-4,-7.171583E-2,-4.929515E-2,8.122161E-2,4.4874262E-2,4.2751342E-2,6.536815E-2,6.569745E-2,-5.6209207E-2,6.854573E-2,1.7842008E-2],"split_indices":[0,5,0,1,0,1,1,1,0,1,1,1,1,0,0,1,1,1,1,0,1,1,1,0,0,0,0,0,1,0,0,0,1,0,1,1,0,0,1,0,0,0,0,0,0,0,0,0,0,0,0,0,0,0,0,0,0,0,0,0,0,0,0],"split_type":[0,0,0,0,0,0,0,0,0,0,0,0,0,0,0,0,0,0,0,0,0,0,0,0,0,0,0,0,0,0,0,0,0,0,0,0,0,0,0,0,0,0,0,0,0,0,0,0,0,0,0,0,0,0,0,0,0,0,0,0,0,0,0],"sum_hessian":[8.419E2,4.2588876E2,4.1601126E2,2.8453932E1,3.974348E2,3.7404932E2,4.196192E1,2.7209213E1,1.2447177E0,7.009527E1,3.2733957E2,3.462194E2,2.7829931E1,4.0786842E1,1.1750785E0,3.1409528E0,2.4068262E1,3.5487835E0,6.654648E1,1.5217485E2,1.751647E2,3.3978812E2,6.4312773E0,2.266477E1,5.1651616E0,1.9309938E0,1.209959E0,1.1724706E0,2.289579E1,2.2129972E0,1.3357863E0,5.7982677E1,8.563804E0,9.277309E1,5.9401768E1,2.3803509E1,1.513612E2,9.9004265E1,2.4078386E2,1.0464498E0,5.3848276E0,1.0178115E0,4.14735E0,1.4507115E0,2.144508E1,2.5308833E0,6.032921E0,3.408493E1,5.8688156E1,1.8254776E1,4.114699E1,1.2864108E1,1.0939401E1,8.321056E1,6.8150635E1,8.2721985E1,1.628228E1,2.4524876E1,2.1625897E2,3.9028022E0,1.4820253E0,1.7328837E0,2.4144664E0],"tree_param":{"num_deleted":"0","num_feature":"8","num_nodes":"63","size_leaf_vector":"1"}},{"base_weights":[1.7527098E-2,-6.0266566E-1,6.7349035E-1,-7.334257E-2,-6.414137E-1,6.5377647E-1,9.670182E-2,2.84541E-3,-3.9289775E-1,-9.118391E-1,-5.8252597E-1,7.390907E-1,6.2045276E-1,-7.4861355E-2,2.1484295E-1,-6.728472E-2,-1.4835843E-1,-4.3595073E-1,-9.309389E-1,-6.4225185E-1,-5.252234E-1,4.714378E-1,7.827777E-1,4.2520806E-1,6.432062E-1,1.1289001E-2,-4.6573925E-1,4.2013987E-3,3.9050674E-1,4.1905988E-2,-4.7941018E-2,-6.251702E-2,1.0166666E-3,-9.658212E-2,-6.210982E-1,-5.3724295E-1,-7.43955E-1,-1.7084707E-1,-5.7199895E-1,5.6241304E-1,2.017236E-2,8.576631E-1,5.336097E-1,7.295675E-1,2.3781678E-1,5.952378E-1,7.1805495E-1,-2.7376344E-2,1.6729545E-2,-1.8750848E-3,-7.64718E-2,1.941347E-2,-2.7809981E-2,-2.3687376E-2,7.65865E-2,-1.1685208E-2,-7.914327E-2,-6.2268466E-2,-1.3423718E-2,-4.9917262E-2,-8.40815E-2,3.8587324E-2,-3.034584E-2,-6.643566E-2,-4.5219194E-2,7.2158255E-2,-2.061846E-2,-8.0850005E-2,6.824263E-2,6.41945E-2,9.290435E-2,2.3149583E-2,6.0611185E-2,2.4937911E-2,9.3540736E-2,-3.2966875E-2,3.1121705E-2,5.460162E-2,8.8075645E-2,8.518582E-2,6.3265786E-2],"categories":[],"categories_nodes":[],"categories_segments":[],"categories_sizes":[],"default_left":[0,0,0,0,0,0,0,0,0,0,0,0,0,0,0,0,0,0,0,0,0,0,0,0,0,0,0,0,0,0,0,0,0,0,0,0,0,0,0,0,0,0,0,0,0,0,0,0,0,0,0,0,0,0,0,0,0,0,0,0,0,0,0,0,0,0,0,0,0,0,0,0,0,0,0,0,0,0,0,0,0],"id":15,"left_children":[1,3,5,7,9,11,-1,13,15,17,19,21,23,25,27,-1,29,31,33,35,37,39,41,43,45,47,49,51,53,-1,-1,-1,-1,-1,55,57,59,61,63,65,67,69,71,73,75,77,79,-1,-1,-1,-1,-1,-1,-1,-1,-1,-1,-1,-1,-1,-1,-1,-1,-1,-1,-1,-1,-1,-1,-1,-1,-1,-1,-1,-1,-1,-1,-1,-1,-1,-1],"loss_changes":[3.290577E2,8.48056E0,1.642334E0,7.190638E-1,5.6362457E0,5.973816E-1,0E0,4.247054E-1,2.8932154E-1,2.0755768E-1,7.605972E-1,7.89711E-1,9.4075775E-1,6.414624E-1,2.541062E-1,0E0,1.011815E0,3.8493127E-1,9.185028E-2,1.2299423E0,2.7071114E0,6.6274357E-1,1.1036987E0,1.6218634E0,4.4449615E-1,7.776521E-1,4.448061E-1,2.7670962E-1,1.0663645E0,0E0,0E0,0E0,0E0,0E0,7.044029E-1,2.6254406E0,1.3565254E0,1.679005E0,1.3488693E0,1.815938E0,2.6327698E0,3.689804E-1,3.4121895E-1,9.04593E-1,9.759383E-1,1.6811943E0,4.8945618E-1,0E0,0E0,0E0,0E0,0E0,0E0,0E0,0E0,0E0,0E0,0E0,0E0,0E0,0E0,0E0,0E0,0E0,0E0,0E0,0E0,0E0,0E0,0E0,0E0,0E0,0E0,0E0,0E0,0E0,0E0,0E0,0E0,0E0,0E0],"parents":[2147483647,0,0,1,1,2,2,3,3,4,4,5,5,7,7,8,8,9,9,10,10,11,11,12,12,13,13,14,14,16,16,17,17,18,18,19,19,20,20,21,21,22,22,23,23,24,24,25,25,26,26,27,27,28,28,34,34,35,35,36,36,37,37,38,38,39,39,40,40,41,41,42,42,43,43,44,44,45,45,46,46],"right_children":[2,4,6,8,10,12,-1,14,16,18,20,22,24,26,28,-1,30,32,34,36,38,40,42,44,46,48,50,52,54,-1,-1,-1,-1,-1,56,58,60,62,64,66,68,70,72,74,76,78,80,-1,-1,-1,-1,-1,-1,-1,-1,-1,-1,-1,-1,-1,-1,-1,-1,-1,-1,-1,-1,-1,-1,-1,-1,-1,-1,-1,-1,-1,-1,-1,-1,-1,-1],"split_conditions":[3.7430596E0,1E0,5.8530874E0,6.6563886E-1,3.1080031E0,3.8947153E-1,9.670182E-2,5.568908E-1,3.2252862E0,2.7086172E-1,5.268244E-1,5.4809537E0,4.2116916E-1,3.356268E0,3.3416874E0,-6.728472E-2,3.3181252E0,3.1031806E0,7.036679E-1,3.1903014E0,5.6460613E-1,5.474952E0,5.785363E0,5.6545095E0,5.742176E0,3.2910976E0,4.357853E-1,6.3559175E-1,5.77501E-1,4.1905988E-2,-4.7941018E-2,-6.251702E-2,1.0166666E-3,-9.658212E-2,7.142885E-1,3.1842062E0,3.4343377E-1,3.1680658E0,3.1933577E0,3.6630413E-1,2.912761E-1,2.9357737E-1,5.7954216E0,5.4719563E0,5.667328E0,6.953487E-1,5.28509E-1,-2.7376344E-2,1.6729545E-2,-1.8750848E-3,-7.64718E-2,1.941347E-2,-2.7809981E-2,-2.3687376E-2,7.65865E-2,-1.1685208E-2,-7.914327E-2,-6.2268466E-2,-1.3423718E-2,-4.9917262E-2,-8.40815E-2,3.8587324E-2,-3.034584E-2,-6.643566E-2,-4.5219194E-2,7.2158255E-2,-2.061846E-2,-8.0850005E-2,6.824263E-2,6.41945E-2,9.290435E-2,2.3149583E-2,6.0611185E-2,2.4937911E-2,9.3540736E-2,-3.2966875E-2,3.1121705E-2,5.460162E-2,8.8075645E-2,8.518582E-2,6.3265786E-2],"split_indices":[0,5,0,1,0,1,0,1,0,1,1,0,1,0,0,0,0,0,1,0,1,0,0,0,0,0,1,1,1,0,0,0,0,0,1,0,1,0,0,1,1,1,0,0,0,1,1,0,0,0,0,0,0,0,0,0,0,0,0,0,0,0,0,0,0,0,0,0,0,0,0,0,0,0,0,0,0,0,0,0,0],"split_type":[0,0,0,0,0,0,0,0,0,0,0,0,0,0,0,0,0,0,0,0,0,0,0,0,0,0,0,0,0,0,0,0,0,0,0,0,0,0,0,0,0,0,0,0,0,0,0,0,0,0,0,0,0,0,0,0,0,0,0,0,0,0,0,0,0,0,0,0,0,0,0,0,0,0,0,0,0,0,0,0,0],"sum_hessian":[8.0684827E2,4.1477383E2,3.9207443E2,2.8488956E1,3.8628488E2,3.704234E2,2.1651035E1,2.380459E1,4.684367E0,6.6485306E1,3.197996E2,9.809776E1,2.7232565E2,1.7892902E1,5.911688E0,1.3674347E0,3.3169322E0,3.4847424E0,6.3000565E1,1.5159035E2,1.6820923E2,1.5419574E1,8.267819E1,3.0478706E1,2.4184694E2,1.5457216E1,2.4356856E0,3.1538126E0,2.7578752E0,1.1242089E0,2.1927233E0,2.1650743E0,1.3196682E0,5.472266E1,8.277903E0,7.767407E1,7.3916275E1,2.0156216E1,1.4805301E2,1.2627555E1,2.7920194E0,6.169437E1,2.0983822E1,1.0511966E1,1.996674E1,1.5284534E2,8.9001595E1,5.2003675E0,1.0256849E1,1.4021366E0,1.0335491E0,2.072046E0,1.0817666E0,1.1704701E0,1.5874052E0,2.5159318E0,5.761971E0,6.363718E1,1.403689E1,2.270082E1,5.1215454E1,3.5101833E0,1.6646032E1,8.103727E1,6.701575E1,1.0511822E1,2.1157324E0,1.1420951E0,1.6499243E0,1.7823484E1,4.3870884E1,4.872642E0,1.611118E1,3.8176267E0,6.694339E0,1.8869125E0,1.8079828E1,1.3285445E2,1.9990898E1,3.1177025E1,5.7824574E1],"tree_param":{"num_deleted":"0","num_feature":"8","num_nodes":"81","size_leaf_vector":"1"}},{"base_weights":[1.7093249E-2,-5.594731E-1,6.456814E-1,-6.976969E-2,-5.9632015E-1,6.2554955E-1,9.541304E-2,-2.11506E-2,-5.3872544E-2,-8.712237E-1,-5.382589E-1,7.1339834E-1,5.9160185E-1,2.548331E-1,-6.6226214E-2,-4.121953E-1,-8.9034295E-1,-5.6669384E-1,-4.1864493E-1,4.4516113E-1,7.584058E-1,5.964279E-1,-1.2183828E-2,-1.2504493E-2,6.53274E-2,-7.8958444E-2,-1.8189541E-3,-5.947438E-2,9.586288E-4,-9.253128E-2,-5.8715785E-1,-8.54479E-2,-5.456896E-1,2.1625962E-2,-4.8971444E-1,5.352625E-1,1.65217E-2,8.3662665E-1,5.061705E-1,5.699067E-1,8.044205E-1,4.2439107E-2,-5.232445E-3,-1.0894737E-2,-7.543855E-2,-1.3750605E-2,-5.674935E-2,2.8745024E-2,-3.57136E-2,-2.3678748E-2,-5.9300195E-2,6.961213E-2,-1.8994218E-2,-7.378822E-2,6.638865E-2,6.1449766E-2,9.121912E-2,2.5312161E-2,5.960399E-2,5.8670934E-2,-2.4437709E-3,9.517281E-2,4.5622766E-2],"categories":[],"categories_nodes":[],"categories_segments":[],"categories_sizes":[],"default_left":[0,0,0,0,0,0,0,0,0,0,0,0,0,0,0,0,0,0,0,0,0,0,0,0,0,0,0,0,0,0,0,0,0,0,0,0,0,0,0,0,0,0,0,0,0,0,0,0,0,0,0,0,0,0,0,0,0,0,0,0,0,0,0],"id":16,"left_children":[1,3,5,7,9,11,-1,13,-1,15,17,19,21,23,25,27,29,31,33,35,37,39,-1,-1,-1,-1,41,-1,-1,-1,43,-1,45,47,49,51,53,55,57,59,61,-1,-1,-1,-1,-1,-1,-1,-1,-1,-1,-1,-1,-1,-1,-1,-1,-1,-1,-1,-1,-1,-1],"loss_changes":[2.8140308E2,7.2662582E0,1.7097473E0,6.6060984E-1,5.540863E0,6.2649536E-1,0E0,3.6203852E-1,0E0,1.9504547E-1,8.2899475E-1,7.8686523E-1,9.660187E-1,7.0251644E-1,1.1467226E0,3.4623754E-1,9.938431E-2,1.0475998E0,2.0142994E0,6.015208E-1,1.1221428E0,9.641037E-1,0E0,0E0,0E0,0E0,5.3089774E-1,0E0,0E0,0E0,6.379466E-1,0E0,2.0239716E0,1.0952036E0,1.3010921E0,1.6519015E0,2.3343997E0,4.174118E-1,3.2839918E-1,2.332718E0,9.3701935E-1,0E0,0E0,0E0,0E0,0E0,0E0,0E0,0E0,0E0,0E0,0E0,0E0,0E0,0E0,0E0,0E0,0E0,0E0,0E0,0E0,0E0,0E0],"parents":[2147483647,0,0,1,1,2,2,3,3,4,4,5,5,7,7,9,9,10,10,11,11,12,12,13,13,14,14,15,15,16,16,17,17,18,18,19,19,20,20,21,21,26,26,30,30,32,32,33,33,34,34,35,35,36,36,37,37,38,38,39,39,40,40],"right_children":[2,4,6,8,10,12,-1,14,-1,16,18,20,22,24,26,28,30,32,34,36,38,40,-1,-1,-1,-1,42,-1,-1,-1,44,-1,46,48,50,52,54,56,58,60,62,-1,-1,-1,-1,-1,-1,-1,-1,-1,-1,-1,-1,-1,-1,-1,-1,-1,-1,-1,-1,-1,-1],"split_conditions":[3.7430596E0,1E0,5.8530874E0,7.196882E-1,3.1080031E0,3.8947153E-1,9.541304E-2,3.2192355E-1,-5.3872544E-2,2.7086172E-1,6.688716E-1,5.4809537E0,5.846244E0,2.6555076E-1,3.4728333E-1,3.1031806E0,7.036679E-1,3.1225605E0,6.778053E-1,5.474952E0,5.785363E0,7.036679E-1,-1.2183828E-2,-1.2504493E-2,6.53274E-2,-7.8958444E-2,3.7555394E-1,-5.947438E-2,9.586288E-4,-9.253128E-2,7.142885E-1,-8.54479E-2,3.1600568E0,3.2005122E0,3.1700745E0,3.6630413E-1,2.912761E-1,2.9357737E-1,5.7987823E0,6.9157445E-1,7.341544E-1,4.2439107E-2,-5.232445E-3,-1.0894737E-2,-7.543855E-2,-1.3750605E-2,-5.674935E-2,2.8745024E-2,-3.57136E-2,-2.3678748E-2,-5.9300195E-2,6.961213E-2,-1.8994218E-2,-7.378822E-2,6.638865E-2,6.1449766E-2,9.121912E-2,2.5312161E-2,5.960399E-2,5.8670934E-2,-2.4437709E-3,9.517281E-2,4.5622766E-2],"split_indices":[0,5,0,1,0,1,0,1,0,1,1,0,0,1,1,0,1,0,1,0,0,1,0,0,0,0,1,0,0,0,1,0,0,0,0,1,1,1,0,1,1,0,0,0,0,0,0,0,0,0,0,0,0,0,0,0,0,0,0,0,0,0,0],"split_type":[0,0,0,0,0,0,0,0,0,0,0,0,0,0,0,0,0,0,0,0,0,0,0,0,0,0,0,0,0,0,0,0,0,0,0,0,0,0,0,0,0,0,0,0,0,0,0,0,0,0,0,0,0,0,0,0,0,0,0,0,0,0,0],"sum_hessian":[7.744531E2,4.0399893E2,3.7045416E2,2.8473614E1,3.7552533E2,3.5059933E2,1.9854801E1,2.6745834E1,1.7277783E0,6.3040646E1,3.1248468E2,9.2142204E1,2.5845715E2,3.101693E0,2.3644142E1,3.4228005E0,5.9617844E1,2.4944762E2,6.3037067E1,1.4803939E1,7.7338264E1,2.5688345E2,1.5736885E0,1.9390986E0,1.1625942E0,1.0125821E0,2.263156E1,2.1026788E0,1.3201218E0,5.161278E1,8.005063E0,1.42685795E1,2.3517905E2,8.858007E0,5.4179058E1,1.2027063E1,2.7768753E0,5.726342E1,2.0074846E1,2.3114948E2,2.5733976E1,1.6133994E0,2.101816E1,2.5019326E0,5.5031304E0,1.2296023E1,2.2288301E2,5.3466673E0,3.51134E0,1.6664385E1,3.7514675E1,9.876455E0,2.150608E0,1.2178429E0,1.5590323E0,1.6853378E1,4.041004E1,6.2612743E0,1.3813573E1,2.2480684E2,6.342637E0,1.6865479E1,8.868498E0],"tree_param":{"num_deleted":"0","num_feature":"8","num_nodes":"63","size_leaf_vector":"1"}},{"base_weights":[1.6528463E-2,-5.189206E-1,6.175766E-1,-8.269718E-1,-4.6128845E-1,5.899995E-1,8.525558E-1,-3.899094E-1,-8.45726E-1,-4.976969E-1,-5.916325E-2,5.706861E-1,8.066793E-1,8.7551914E-2,5.4997746E-3,-5.7542365E-2,2.5334368E-3,-8.5491973E-1,-2.3568884E-2,-5.195298E-1,-3.3970848E-1,-1.6491288E-2,-5.6179892E-2,5.8439904E-1,-7.739135E-2,9.0164983E-1,3.3130038E-1,-3.5420752E-1,-8.672481E-2,-5.467018E-1,-4.195388E-1,-7.582131E-1,-2.2120449E-1,1.4387332E-1,-9.941057E-2,6.498728E-2,5.897003E-1,-8.805336E-2,2.1750467E-1,9.412327E-1,3.768797E-2,4.6159288E-1,8.238844E-3,7.422287E-3,-6.1048158E-2,-5.237415E-2,-9.794693E-2,-3.0615075E-2,-7.325044E-2,-2.6897982E-2,-9.226031E-2,-4.321364E-3,-5.423212E-2,-1.2767598E-2,7.0393644E-2,2.6874575E-3,-5.2063216E-2,3.7898146E-2,-4.2177048E-2,6.866713E-2,5.4792553E-2,6.049622E-2,-5.6616016E-2,9.903114E-2,4.134434E-2,4.8824293E-3,6.187856E-2],"categories":[],"categories_nodes":[],"categories_segments":[],"categories_sizes":[],"default_left":[0,0,0,0,0,0,0,0,0,0,0,0,0,0,0,0,0,0,0,0,0,0,0,0,0,0,0,0,0,0,0,0,0,0,0,0,0,0,0,0,0,0,0,0,0,0,0,0,0,0,0,0,0,0,0,0,0,0,0,0,0,0,0,0,0,0,0],"id":17,"left_children":[1,3,5,7,9,11,13,15,17,19,21,23,25,-1,-1,-1,-1,27,-1,29,31,33,-1,35,37,39,41,43,-1,45,47,49,51,53,55,57,59,-1,61,63,-1,65,-1,-1,-1,-1,-1,-1,-1,-1,-1,-1,-1,-1,-1,-1,-1,-1,-1,-1,-1,-1,-1,-1,-1,-1,-1],"loss_changes":[2.4016255E2,6.625412E0,1.775177E0,1.697464E-1,4.8713074E0,8.6994934E-1,5.8698845E-1,3.5065365E-1,1.21421814E-1,8.8179016E-1,6.111426E-1,2.6695251E0,7.6664066E-1,0E0,0E0,0E0,0E0,4.0607452E-2,0E0,4.9788666E-1,1.8230066E0,3.8253513E-1,0E0,7.582474E-1,1.8498567E0,4.1749954E-2,1.4067233E-1,3.7956116E-1,0E0,1.5455856E0,1.9579515E0,4.311056E-1,1.8452249E0,1.5874637E0,1.016443E0,7.7832144E-1,7.8331757E-1,0E0,2.1410336E0,3.3010483E-2,0E0,1.9037098E-1,0E0,0E0,0E0,0E0,0E0,0E0,0E0,0E0,0E0,0E0,0E0,0E0,0E0,0E0,0E0,0E0,0E0,0E0,0E0,0E0,0E0,0E0,0E0,0E0,0E0],"parents":[2147483647,0,0,1,1,2,2,3,3,4,4,5,5,6,6,7,7,8,8,9,9,10,10,11,11,12,12,17,17,19,19,20,20,21,21,23,23,24,24,25,25,26,26,27,27,29,29,30,30,31,31,32,32,33,33,34,34,35,35,36,36,38,38,39,39,41,41],"right_children":[2,4,6,8,10,12,14,16,18,20,22,24,26,-1,-1,-1,-1,28,-1,30,32,34,-1,36,38,40,42,44,-1,46,48,50,52,54,56,58,60,-1,62,64,-1,66,-1,-1,-1,-1,-1,-1,-1,-1,-1,-1,-1,-1,-1,-1,-1,-1,-1,-1,-1,-1,-1,-1,-1,-1,-1],"split_conditions":[3.7430596E0,3.1080031E0,5.8258085E0,2.7086172E-1,1E0,7.036679E-1,7.341544E-1,2.6555076E-1,7.452681E-1,3.2932653E0,7.2330654E-1,6.9157445E-1,7.408204E-1,8.7551914E-2,5.4997746E-3,-5.7542365E-2,2.5334368E-3,3.095496E0,-2.3568884E-2,6.6127306E-1,4.0588212E-1,3.3181252E0,-5.6179892E-2,5.38358E0,6.936164E-1,5.7954216E0,1E0,5.440175E-1,-8.672481E-2,6.49821E-1,7.2512287E-1,3.4149635E-1,3.3472803E0,5.568908E-1,6.270324E-1,5.549851E-1,3.8947153E-1,-8.805336E-2,5.752085E0,7.369129E-1,3.768797E-2,5.4689636E0,8.238844E-3,7.422287E-3,-6.1048158E-2,-5.237415E-2,-9.794693E-2,-3.0615075E-2,-7.325044E-2,-2.6897982E-2,-9.226031E-2,-4.321364E-3,-5.423212E-2,-1.2767598E-2,7.0393644E-2,2.6874575E-3,-5.2063216E-2,3.7898146E-2,-4.2177048E-2,6.866713E-2,5.4792553E-2,6.049622E-2,-5.6616016E-2,9.903114E-2,4.134434E-2,4.8824293E-3,6.187856E-2],"split_indices":[0,0,0,1,7,1,1,1,1,0,1,1,1,0,0,0,0,0,0,1,1,0,0,0,1,0,3,1,0,1,1,1,0,1,1,1,1,0,0,1,0,0,0,0,0,0,0,0,0,0,0,0,0,0,0,0,0,0,0,0,0,0,0,0,0,0,0],"split_type":[0,0,0,0,0,0,0,0,0,0,0,0,0,0,0,0,0,0,0,0,0,0,0,0,0,0,0,0,0,0,0,0,0,0,0,0,0,0,0,0,0,0,0,0,0,0,0,0,0,0,0,0,0,0,0,0,0,0,0,0,0,0,0,0,0,0,0],"sum_hessian":[7.4424304E2,3.936728E2,3.5057025E2,5.9939487E1,3.337333E2,3.1689087E2,3.367939E1,3.3627126E0,5.6576775E1,3.0580777E2,2.7925512E1,2.9429333E2,2.2597536E1,3.2641815E1,1.037575E0,2.0576763E0,1.3050363E0,5.534132E1,1.2354546E0,2.666677E2,3.91401E1,2.6692247E1,1.2332662E0,2.882915E2,6.001827E0,1.808737E1,4.510166E0,2.0442886E0,5.329703E1,2.0617372E2,6.0493958E1,7.4459677E0,3.1694132E1,8.847063E0,1.7845184E1,3.0465972E0,2.852449E2,1.0785391E0,4.9232874E0,1.6080801E1,2.006568E0,2.3996375E0,2.1105287E0,1.0310278E0,1.0132607E0,1.9788522E2,8.288498E0,4.585781E1,1.4636148E1,2.5357301E0,4.910238E0,2.1121391E1,1.05727415E1,6.478139E0,2.3689244E0,1.4449363E1,3.3958209E0,1.9865468E0,1.0600505E0,8.123602E1,2.040089E2,3.4470437E0,1.4762439E0,1.3910898E1,2.1699033E0,1.0232668E0,1.3763707E0],"tree_param":{"num_deleted":"0","num_feature":"8","num_nodes":"67","size_leaf_vector":"1"}},{"base_weights":[1.5435082E-2,-4.8130274E-1,5.8920735E-1,-7.77371E-1,-4.2320418E-1,5.68168E-1,9.293681E-2,-2.9023727E-2,-7.9047364E-1,-4.5779034E-1,-5.4708313E-2,6.553656E-1,5.318587E-1,-8.2067794E-1,-5.0837886E-1,-4.6329644E-1,3.1618554E-2,-1.4355616E-2,-5.3270217E-2,7.1252036E-1,4.273189E-1,-7.561224E-2,5.4520696E-1,-3.408825E-2,-8.330407E-2,-4.2286694E-2,-6.8571204E-1,-4.8404008E-1,-3.1189013E-1,2.3928015E-2,-2.5783038E-2,-1.5108733E-1,7.683689E-2,4.204036E-1,7.809919E-1,5.298656E-1,1.1797007E-1,5.506293E-1,-1.6536554E-2,-3.0326186E-2,2.616085E-2,-8.98124E-2,-2.2304062E-2,-4.6536084E-2,-8.570986E-2,1.0550154E-2,-5.682383E-2,1.61306E-3,-5.0040957E-2,2.049288E-2,-2.6446006E-3,5.1452816E-2,-1.9747382E-3,5.5534013E-2,8.5172705E-2,8.894911E-3,6.399426E-2,6.823727E-2,-2.4306888E-2,5.236403E-2,7.598549E-2],"categories":[],"categories_nodes":[],"categories_segments":[],"categories_sizes":[],"default_left":[0,0,0,0,0,0,0,0,0,0,0,0,0,0,0,0,0,0,0,0,0,0,0,0,0,0,0,0,0,0,0,0,0,0,0,0,0,0,0,0,0,0,0,0,0,0,0,0,0,0,0,0,0,0,0,0,0,0,0,0,0],"id":18,"left_children":[1,3,5,7,9,11,-1,-1,13,15,17,19,21,23,25,27,29,31,-1,33,35,-1,37,-1,-1,39,41,43,45,-1,-1,47,49,51,53,55,57,59,-1,-1,-1,-1,-1,-1,-1,-1,-1,-1,-1,-1,-1,-1,-1,-1,-1,-1,-1,-1,-1,-1,-1],"loss_changes":[2.0475337E2,6.294548E0,1.8575821E0,1.6612625E-1,4.1054535E0,6.5348816E-1,0E0,0E0,9.2041016E-2,8.126869E-1,5.5063766E-1,8.5214233E-1,4.345093E0,2.6607513E-2,6.659901E-1,7.690048E-1,3.1599933E-1,3.5722962E-1,0E0,1.0609283E0,5.808809E-1,0E0,9.6564484E-1,0E0,0E0,3.4765053E-1,3.9182782E-1,1.3837318E0,4.137352E0,0E0,0E0,6.7557573E-1,2.341778E-1,6.4630294E-1,4.065132E-1,6.684723E-1,1.4569168E0,8.7548065E-1,0E0,0E0,0E0,0E0,0E0,0E0,0E0,0E0,0E0,0E0,0E0,0E0,0E0,0E0,0E0,0E0,0E0,0E0,0E0,0E0,0E0,0E0,0E0],"parents":[2147483647,0,0,1,1,2,2,3,3,4,4,5,5,8,8,9,9,10,10,11,11,12,12,13,13,14,14,15,15,16,16,17,17,19,19,20,20,22,22,25,25,26,26,27,27,28,28,31,31,32,32,33,33,34,34,35,35,36,36,37,37],"right_children":[2,4,6,8,10,12,-1,-1,14,16,18,20,22,24,26,28,30,32,-1,34,36,-1,38,-1,-1,40,42,44,46,-1,-1,48,50,52,54,56,58,60,-1,-1,-1,-1,-1,-1,-1,-1,-1,-1,-1,-1,-1,-1,-1,-1,-1,-1,-1,-1,-1,-1,-1],"split_conditions":[3.7430596E0,3.1089694E0,5.8530874E0,2.6664603E-1,1E0,3.974834E-1,9.293681E-2,-2.9023727E-2,7.036679E-1,3.356268E0,7.2330654E-1,5.785363E0,3.9928436E-1,3.095496E0,7.142885E-1,6.953487E-1,6.033539E-1,4.4528508E-1,-5.3270217E-2,5.4809537E0,1E0,-7.561224E-2,5.846244E0,-3.408825E-2,-8.330407E-2,3.1002946E0,3.101256E0,6.846872E-1,7.174096E-1,2.3928015E-2,-2.5783038E-2,4.2701465E-1,5.549851E-1,5.474952E0,2.9357737E-1,2.839637E-1,3.026242E-1,7.036679E-1,-1.6536554E-2,-3.0326186E-2,2.616085E-2,-8.98124E-2,-2.2304062E-2,-4.6536084E-2,-8.570986E-2,1.0550154E-2,-5.682383E-2,1.61306E-3,-5.0040957E-2,2.049288E-2,-2.6446006E-3,5.1452816E-2,-1.9747382E-3,5.5534013E-2,8.5172705E-2,8.894911E-3,6.399426E-2,6.823727E-2,-2.4306888E-2,5.236403E-2,7.598549E-2],"split_indices":[0,0,0,1,7,1,0,0,1,0,1,0,1,0,1,1,1,1,0,0,3,0,0,0,0,0,0,1,1,0,0,1,1,0,1,1,1,1,0,0,0,0,0,0,0,0,0,0,0,0,0,0,0,0,0,0,0,0,0,0,0],"split_type":[0,0,0,0,0,0,0,0,0,0,0,0,0,0,0,0,0,0,0,0,0,0,0,0,0,0,0,0,0,0,0,0,0,0,0,0,0,0,0,0,0,0,0,0,0,0,0,0,0,0,0,0,0,0,0,0,0,0,0,0,0],"sum_hessian":[7.164016E2,3.8406348E2,3.323381E2,6.0972023E1,3.2309146E2,3.154947E2,1.6843431E1,2.203429E0,5.8768593E1,2.951473E2,2.7944168E1,8.773879E1,2.2775589E2,5.1360165E1,7.4084272E0,2.9191644E2,3.2308528E0,2.6718592E1,1.225576E0,6.8457115E1,1.9281677E1,1.7654071E0,2.2599048E2,2.0078914E0,4.9352276E1,2.3831515E0,5.0252757E0,2.5480902E2,3.7107414E1,1.982126E0,1.2487267E0,1.0427328E1,1.6291264E1,1.4354993E1,5.4102123E1,1.3945885E1,5.3357935E0,2.245024E2,1.4880877E0,1.2832354E0,1.0999161E0,2.79906E0,2.2262156E0,2.4479921E2,1.0009811E1,1.4342724E1,2.276469E1,7.696767E0,2.7305613E0,6.8329096E0,9.458355E0,1.1686829E1,2.6681635E0,1.5024257E1,3.9077866E1,3.1473095E0,1.0798575E1,1.7344104E0,3.601383E0,2.019541E2,2.2548292E1],"tree_param":{"num_deleted":"0","num_feature":"8","num_nodes":"61","size_leaf_vector":"1"}},{"base_weights":[1.4673703E-2,-4.457986E-1,5.6113344E-1,-7.5426954E-1,-3.9154148E-1,5.3987414E-1,9.161176E-2,-3.3808008E-1,-7.7373785E-1,-4.235304E-1,-5.2246932E-2,6.3396776E-1,5.046845E-1,-5.339356E-2,6.666161E-3,-8.0972224E-1,-4.8362967E-1,-4.443044E-1,-2.7624738E-1,-9.669018E-3,-4.5984436E-2,3.5286194E-1,6.845558E-1,7.449101E-1,4.759314E-1,-3.224046E-2,-8.24643E-2,-3.94991E-2,-6.5787494E-1,-4.966461E-1,-3.8769248E-1,-6.97863E-1,-1.6176063E-1,-6.4394906E-2,2.6221034E-1,4.4521013E-1,-3.4608703E-2,7.750612E-1,4.1322175E-1,2.813942E-1,8.3737683E-1,3.5303313E-2,5.027154E-1,-2.8890153E-2,2.4607647E-2,-8.7041266E-2,-2.0981278E-2,-4.0701784E-2,-6.8077385E-2,3.5244457E-2,-4.4882007E-2,-2.3113046E-2,-8.639289E-2,8.887847E-4,-4.7585364E-2,-1.4852232E-3,-4.9250063E-2,6.370538E-2,-7.8204385E-4,6.253557E-2,-2.6940411E-2,-7.317272E-2,6.278822E-2,5.285098E-2,8.64776E-2,1.6141852E-2,5.1087476E-2,-2.4031082E-2,7.177882E-2,8.822791E-2,6.0719657E-3,-3.517283E-2,6.633554E-2,3.162386E-3,5.196897E-2],"categories":[],"categories_nodes":[],"categories_segments":[],"categories_sizes":[],"default_left":[0,0,0,0,0,0,0,0,0,0,0,0,0,0,0,0,0,0,0,0,0,0,0,0,0,0,0,0,0,0,0,0,0,0,0,0,0,0,0,0,0,0,0,0,0,0,0,0,0,0,0,0,0,0,0,0,0,0,0,0,0,0,0,0,0,0,0,0,0,0,0,0,0,0,0],"id":19,"left_children":[1,3,5,7,9,11,-1,13,15,17,19,21,23,-1,-1,25,27,29,31,33,-1,35,37,39,41,-1,-1,43,45,47,49,51,53,55,57,59,61,63,65,67,69,71,73,-1,-1,-1,-1,-1,-1,-1,-1,-1,-1,-1,-1,-1,-1,-1,-1,-1,-1,-1,-1,-1,-1,-1,-1,-1,-1,-1,-1,-1,-1,-1,-1],"loss_changes":[1.7430655E2,5.9968567E0,1.895958E0,1.8531036E-1,3.4705315E0,6.776962E-1,0E0,3.7176222E-1,1.5035248E-1,7.765808E-1,4.9650988E-1,8.691883E-1,1.1940384E0,0E0,0E0,5.9173584E-2,6.095153E-1,5.658798E-1,1.7685173E0,4.209519E-1,0E0,5.155139E-1,1.2791729E0,7.1570015E-1,2.3779945E0,0E0,0E0,3.116711E-1,3.7295723E-1,1.8589554E0,5.927477E0,4.2209196E-1,1.7170107E0,4.8918992E-1,4.855316E-1,1.6307111E0,2.130278E0,5.98011E-1,3.707924E-1,1.3558369E0,5.74111E-1,3.3223028E0,1.5132103E0,0E0,0E0,0E0,0E0,0E0,0E0,0E0,0E0,0E0,0E0,0E0,0E0,0E0,0E0,0E0,0E0,0E0,0E0,0E0,0E0,0E0,0E0,0E0,0E0,0E0,0E0,0E0,0E0,0E0,0E0,0E0,0E0],"parents":[2147483647,0,0,1,1,2,2,3,3,4,4,5,5,7,7,8,8,9,9,10,10,11,11,12,12,15,15,16,16,17,17,18,18,19,19,21,21,22,22,23,23,24,24,27,27,28,28,29,29,30,30,31,31,32,32,33,33,34,34,35,35,36,36,37,37,38,38,39,39,40,40,41,41,42,42],"right_children":[2,4,6,8,10,12,-1,14,16,18,20,22,24,-1,-1,26,28,30,32,34,-1,36,38,40,42,-1,-1,44,46,48,50,52,54,56,58,60,62,64,66,68,70,72,74,-1,-1,-1,-1,-1,-1,-1,-1,-1,-1,-1,-1,-1,-1,-1,-1,-1,-1,-1,-1,-1,-1,-1,-1,-1,-1,-1,-1,-1,-1,-1,-1],"split_conditions":[3.7430596E0,3.1080031E0,5.8530874E0,2.7086172E-1,1E0,3.8947153E-1,9.161176E-2,2.6555076E-1,7.036679E-1,3.2932653E0,7.196882E-1,5.4809537E0,5.4600053E0,-5.339356E-2,6.666161E-3,3.095496E0,7.142885E-1,5.4246324E-1,4.0588212E-1,6.477416E-1,-4.5984436E-2,5.474952E0,5.785363E0,5.392289E0,5.483959E0,-3.224046E-2,-8.24643E-2,3.1002946E0,3.101256E0,3.194378E0,5.6460613E-1,3.4149635E-1,3.3472803E0,6.270324E-1,6.6563886E-1,3.6630413E-1,2.912761E-1,2.9357737E-1,5.7987823E0,5.6325555E-1,7.341544E-1,6.291366E-1,3.9928436E-1,-2.8890153E-2,2.4607647E-2,-8.7041266E-2,-2.0981278E-2,-4.0701784E-2,-6.8077385E-2,3.5244457E-2,-4.4882007E-2,-2.3113046E-2,-8.639289E-2,8.887847E-4,-4.7585364E-2,-1.4852232E-3,-4.9250063E-2,6.370538E-2,-7.8204385E-4,6.253557E-2,-2.6940411E-2,-7.317272E-2,6.278822E-2,5.285098E-2,8.64776E-2,1.6141852E-2,5.1087476E-2,-2.4031082E-2,7.177882E-2,8.822791E-2,6.0719657E-3,-3.517283E-2,6.633554E-2,3.162386E-3,5.196897E-2],"split_indices":[0,0,0,1,7,1,0,1,1,0,1,0,0,0,0,0,1,1,1,1,0,0,0,0,0,0,0,0,0,0,1,1,0,1,1,1,1,1,0,1,1,1,1,0,0,0,0,0,0,0,0,0,0,0,0,0,0,0,0,0,0,0,0,0,0,0,0,0,0,0,0,0,0,0,0],"split_type":[0,0,0,0,0,0,0,0,0,0,0,0,0,0,0,0,0,0,0,0,0,0,0,0,0,0,0,0,0,0,0,0,0,0,0,0,0,0,0,0,0,0,0,0,0,0,0,0,0,0,0,0,0,0,0,0,0,0,0,0,0,0,0,0,0,0,0,0,0,0,0,0,0,0,0],"sum_hessian":[6.907168E2,3.7495038E2,3.157664E2,5.4155502E1,3.207949E2,3.0030267E2,1.5463707E1,3.240764E0,5.091474E1,2.9292905E2,2.7865822E1,7.710786E1,2.2319482E2,1.9688375E0,1.2719265E0,4.3702827E1,7.211911E0,2.5495189E2,3.797717E1,2.6157148E1,1.7086723E0,1.2976379E1,6.413148E1,2.1196417E1,2.019984E2,1.9699911E0,4.1732838E1,2.3778193E0,4.834092E0,1.2843335E2,1.2651854E2,7.0219913E0,3.0955177E1,2.240954E1,3.7476091E0,1.0358548E1,2.6178308E0,4.6698414E1,1.7433065E1,4.197655E0,1.6998762E1,1.1707887E1,1.9029051E2,1.263082E0,1.1147372E0,2.6394546E0,2.1946375E0,8.85434E1,3.9889954E1,9.288381E0,1.17230156E2,2.47047E0,4.5515213E0,2.0687336E1,1.026784E1,2.1012548E1,1.3969914E0,1.0001127E0,2.7474966E0,8.372778E0,1.9857707E0,1.2246553E0,1.3931756E0,1.4297493E1,3.240092E1,5.612899E0,1.1820167E1,2.1166022E0,2.081053E0,1.59411335E1,1.0576284E0,7.516115E0,4.1917715E0,6.7176237E0,1.8357289E2],"tree_param":{"num_deleted":"0","num_feature":"8","num_nodes":"75","size_leaf_vector":"1"}},{"base_weights":[1.3992718E-2,-4.1278023E-1,5.335847E-1,-7.201251E-1,-3.603793E-1,5.1221836E-1,9.025985E-2,-2.4517339E-2,-7.351997E-1,-3.9043158E-1,-4.8108436E-2,6.04261E-1,4.745986E-1,-7.444226E-1,-1.812312E-2,-3.957786E-1,6.145656E-2,-1.1725162E-2,-4.8232682E-2,6.633325E-1,3.8102996E-1,-6.8285555E-2,4.8838028E-1,-3.0485902E-2,-7.559486E-2,-4.1394034E-1,-2.2964397E-1,2.507591E-2,-2.1693908E-2,1.3866301E-1,-8.923462E-2,4.188313E-1,7.5327677E-1,4.8200408E-1,9.328658E-2,4.9406382E-1,-1.8969938E-2,-3.9727E-2,-6.088829E-2,5.109352E-2,-4.9841486E-2,-1.1747952E-2,6.76419E-2,2.6678292E-3,-4.681212E-2,6.911229E-2,2.8943701E-3,2.2861011E-2,8.337896E-2,5.3147315E-3,5.9616257E-2,6.57022E-2,-2.4552908E-2,4.6594497E-2,7.179325E-2],"categories":[],"categories_nodes":[],"categories_segments":[],"categories_sizes":[],"default_left":[0,0,0,0,0,0,0,0,0,0,0,0,0,0,0,0,0,0,0,0,0,0,0,0,0,0,0,0,0,0,0,0,0,0,0,0,0,0,0,0,0,0,0,0,0,0,0,0,0,0,0,0,0,0,0],"id":20,"left_children":[1,3,5,7,9,11,-1,-1,13,15,17,19,21,23,-1,25,27,29,-1,31,33,-1,35,-1,-1,37,39,-1,-1,41,43,45,47,49,51,53,-1,-1,-1,-1,-1,-1,-1,-1,-1,-1,-1,-1,-1,-1,-1,-1,-1,-1,-1],"loss_changes":[1.4840262E2,5.658451E0,1.9171219E0,1.9579506E-1,2.9461021E0,7.090149E-1,0E0,0E0,1.2262535E-1,7.2034836E-1,4.5054036E-1,7.9925346E-1,3.6642914E0,1.9109726E-2,0E0,7.6433563E-1,2.775471E-1,3.3489397E-1,0E0,1.0421467E0,5.083301E-1,0E0,8.9121246E-1,0E0,0E0,5.884628E-1,6.2886524E0,0E0,0E0,1.4295949E0,8.4107983E-1,1.9817064E0,1.662983E0,6.4669895E-1,1.3429925E0,9.590225E-1,0E0,0E0,0E0,0E0,0E0,0E0,0E0,0E0,0E0,0E0,0E0,0E0,0E0,0E0,0E0,0E0,0E0,0E0,0E0],"parents":[2147483647,0,0,1,1,2,2,3,3,4,4,5,5,8,8,9,9,10,10,11,11,12,12,13,13,15,15,16,16,17,17,19,19,20,20,22,22,25,25,26,26,29,29,30,30,31,31,32,32,33,33,34,34,35,35],"right_children":[2,4,6,8,10,12,-1,-1,14,16,18,20,22,24,-1,26,28,30,-1,32,34,-1,36,-1,-1,38,40,-1,-1,42,44,46,48,50,52,54,-1,-1,-1,-1,-1,-1,-1,-1,-1,-1,-1,-1,-1,-1,-1,-1,-1,-1,-1],"split_conditions":[3.7430596E0,3.1080031E0,5.8530874E0,2.6664603E-1,1E0,3.974834E-1,9.025985E-2,-2.4517339E-2,7.452681E-1,3.356268E0,7.2330654E-1,5.785363E0,3.9928436E-1,3.095496E0,-1.812312E-2,7.015111E-1,6.033539E-1,3.3181252E0,-4.8232682E-2,2.9357737E-1,1E0,-6.8285555E-2,5.846244E0,-3.0485902E-2,-7.559486E-2,6.846872E-1,7.174096E-1,2.507591E-2,-2.1693908E-2,5.568908E-1,6.270324E-1,2.7484563E-1,5.4600053E0,2.839637E-1,3.026242E-1,7.036679E-1,-1.8969938E-2,-3.9727E-2,-6.088829E-2,5.109352E-2,-4.9841486E-2,-1.1747952E-2,6.76419E-2,2.6678292E-3,-4.681212E-2,6.911229E-2,2.8943701E-3,2.2861011E-2,8.337896E-2,5.3147315E-3,5.9616257E-2,6.57022E-2,-2.4552908E-2,4.6594497E-2,7.179325E-2],"split_indices":[0,0,0,1,7,1,0,0,1,0,1,0,1,0,0,1,1,0,0,1,3,0,0,0,0,1,1,0,0,1,1,1,0,1,1,1,0,0,0,0,0,0,0,0,0,0,0,0,0,0,0,0,0,0,0],"split_type":[0,0,0,0,0,0,0,0,0,0,0,0,0,0,0,0,0,0,0,0,0,0,0,0,0,0,0,0,0,0,0,0,0,0,0,0,0,0,0,0,0,0,0,0,0,0,0,0,0,0,0,0,0,0,0],"sum_hessian":[6.672473E2,3.664582E2,3.0078915E2,5.1522552E1,3.1493564E2,2.8658368E2,1.4205466E1,2.1160724E0,4.940648E1,2.8705936E2,2.7876282E1,7.877823E1,2.0780545E2,4.825922E1,1.1472604E0,2.8382513E2,3.2342198E0,2.6668707E1,1.2075753E0,6.073498E1,1.8043243E1,1.8739495E0,2.059315E2,1.9344676E0,4.6324753E1,2.5451059E2,2.931456E1,1.984248E0,1.2499716E0,8.801862E0,1.7866844E1,1.7855042E1,4.287994E1,1.2856543E1,5.1867003E0,2.0448889E2,1.4426107E0,2.372594E2,1.7251183E1,7.5659933E0,2.1748566E1,6.4914217E0,2.3104398E0,1.4393135E1,3.4737096E0,1.0058038E1,7.7970047E0,6.2155247E0,3.6664413E1,3.010945E0,9.845598E0,1.5945123E0,3.592188E0,1.8440782E2,2.0081066E1],"tree_param":{"num_deleted":"0","num_feature":"8","num_nodes":"55","size_leaf_vector":"1"}},{"base_weights":[1.3550305E-2,-3.8108724E-1,5.060301E-1,-6.8498546E-1,-3.30871E-1,4.762331E-1,7.795416E-1,-3.4393138E-1,-7.121761E-1,-3.7445202E-1,-1.3694936E-1,4.552955E-1,7.249163E-1,8.341607E-1,1.8434241E-1,-6.2269688E-2,9.5364535E-3,-8.401027E-2,-5.7969475E-1,-3.5651723E-1,-6.3776237E-1,-4.0336174E-1,-6.0994983E-2,4.7122768E-1,-2.3147497E-1,8.875589E-1,3.065202E-1,2.7298285E-2,8.632823E-2,-2.0914648E-2,5.4625023E-2,2.5872502E-2,-6.727703E-1,-3.8546002E-1,1.8372063E-1,-9.8220474E-1,-3.0366912E-1,-3.946542E-2,-6.446727E-1,2.1600059E-1,-2.0102139E-1,5.656716E-1,4.2820087E-1,-9.3965136E-2,8.8404156E-2,9.551235E-2,1.7505301E-2,5.666964E-1,-8.9029334E-2,-3.6452062E-2,4.2040017E-2,-8.6784236E-2,-4.6453822E-2,-3.3715528E-2,-5.0637584E-2,5.538552E-2,-2.0640086E-2,-3.162593E-2,-1.0810461E-1,2.83537E-2,-6.225684E-2,-3.1688757E-2,2.9276444E-2,-1.9948391E-2,-8.120942E-2,-5.270578E-3,1.21564984E-1,-4.8937768E-2,-3.5493397E-3,6.37544E-2,2.3817485E-2,-6.135696E-2,4.4428702E-2,7.0007324E-2,-5.0025564E-2,9.942956E-3,7.088894E-2,2.1224849E-2,-3.9625805E-2],"categories":[],"categories_nodes":[],"categories_segments":[],"categories_sizes":[],"default_left":[0,0,0,0,0,0,0,0,0,0,0,0,0,0,0,0,0,0,0,0,0,0,0,0,0,0,0,0,0,0,0,0,0,0,0,0,0,0,0,0,0,0,0,0,0,0,0,0,0,0,0,0,0,0,0,0,0,0,0,0,0,0,0,0,0,0,0,0,0,0,0,0,0,0,0,0,0,0,0],"id":21,"left_children":[1,3,5,7,9,11,13,15,17,19,21,23,25,27,29,-1,-1,-1,31,33,35,37,39,41,43,45,47,-1,-1,-1,-1,49,51,53,55,57,59,61,63,65,67,69,71,-1,73,-1,-1,75,77,-1,-1,-1,-1,-1,-1,-1,-1,-1,-1,-1,-1,-1,-1,-1,-1,-1,-1,-1,-1,-1,-1,-1,-1,-1,-1,-1,-1,-1,-1],"loss_changes":[1.2585357E2,5.2596893E0,1.9763718E0,2.1916771E-1,2.572525E0,1.0358467E0,7.1515274E-1,7.487578E-1,2.827282E-1,9.670067E-1,1.1600759E0,2.7859306E0,9.992819E-1,1.5979576E-1,6.1698383E-1,0E0,0E0,0E0,1.4567995E0,3.8086987E0,1.4118404E0,1.0994506E0,1.8561277E0,7.3072433E-1,1.4914961E0,4.5503807E-1,7.458459E-1,0E0,0E0,0E0,0E0,8.25574E-1,4.975071E-1,1.1564369E0,1.9673982E0,1.1027765E-1,1.8602107E0,6.617219E-1,4.072368E-1,4.408785E0,1.4890506E0,1.5387325E0,3.0980968E0,0E0,2.221419E0,0E0,0E0,2.0935857E-1,4.122618E-1,0E0,0E0,0E0,0E0,0E0,0E0,0E0,0E0,0E0,0E0,0E0,0E0,0E0,0E0,0E0,0E0,0E0,0E0,0E0,0E0,0E0,0E0,0E0,0E0,0E0,0E0,0E0,0E0,0E0,0E0],"parents":[2147483647,0,0,1,1,2,2,3,3,4,4,5,5,6,6,7,7,8,8,9,9,10,10,11,11,12,12,13,13,14,14,18,18,19,19,20,20,21,21,22,22,23,23,24,24,25,25,26,26,31,31,32,32,33,33,34,34,35,35,36,36,37,37,38,38,39,39,40,40,41,41,42,42,44,44,47,47,48,48],"right_children":[2,4,6,8,10,12,14,16,18,20,22,24,26,28,30,-1,-1,-1,32,34,36,38,40,42,44,46,48,-1,-1,-1,-1,50,52,54,56,58,60,62,64,66,68,70,72,-1,74,-1,-1,76,78,-1,-1,-1,-1,-1,-1,-1,-1,-1,-1,-1,-1,-1,-1,-1,-1,-1,-1,-1,-1,-1,-1,-1,-1,-1,-1,-1,-1,-1,-1],"split_conditions":[3.7430596E0,3.1080031E0,5.8258085E0,2.8869903E-1,3.2932653E0,7.036679E-1,7.060767E-1,3.1031806E0,5.186273E-1,7.2512287E-1,4.0588212E-1,6.9157445E-1,7.369129E-1,2.839637E-1,5.8530874E0,-6.2269688E-2,9.5364535E-3,-8.401027E-2,5.440175E-1,7.036679E-1,7.369129E-1,1E0,5.4246324E-1,3.974834E-1,6.936164E-1,5.7954216E0,1E0,2.7298285E-2,8.632823E-2,-2.0914648E-2,5.4625023E-2,5.2498937E-1,3.1002946E0,3.2118194E0,7.174096E-1,3.1225605E0,7.433674E-1,3.45193E-1,3.4149635E-1,5.186273E-1,5.958763E-1,5.785363E0,3.9928436E-1,-9.3965136E-2,5.67698E0,9.551235E-2,1.7505301E-2,5.4540496E0,5.738881E0,-3.6452062E-2,4.2040017E-2,-8.6784236E-2,-4.6453822E-2,-3.3715528E-2,-5.0637584E-2,5.538552E-2,-2.0640086E-2,-3.162593E-2,-1.0810461E-1,2.83537E-2,-6.225684E-2,-3.1688757E-2,2.9276444E-2,-1.9948391E-2,-8.120942E-2,-5.270578E-3,1.21564984E-1,-4.8937768E-2,-3.5493397E-3,6.37544E-2,2.3817485E-2,-6.135696E-2,4.4428702E-2,7.0007324E-2,-5.0025564E-2,9.942956E-3,7.088894E-2,2.1224849E-2,-3.9625805E-2],"split_indices":[0,0,0,1,0,1,1,0,1,1,1,1,1,1,0,0,0,0,1,1,1,5,1,1,1,0,3,0,0,0,0,1,0,0,1,0,1,1,1,1,1,0,1,0,0,0,0,0,0,0,0,0,0,0,0,0,0,0,0,0,0,0,0,0,0,0,0,0,0,0,0,0,0,0,0,0,0,0,0],"split_type":[0,0,0,0,0,0,0,0,0,0,0,0,0,0,0,0,0,0,0,0,0,0,0,0,0,0,0,0,0,0,0,0,0,0,0,0,0,0,0,0,0,0,0,0,0,0,0,0,0,0,0,0,0,0,0,0,0,0,0,0,0,0,0,0,0,0,0,0,0,0,0,0,0,0,0,0,0,0,0],"sum_hessian":[6.4556586E2,3.5850897E2,2.870569E2,4.9046875E1,3.094621E2,2.6132834E2,2.572854E1,4.629362E0,4.441751E1,2.5191661E2,5.7545498E1,2.4364569E2,1.7682642E1,2.3198246E1,2.5302935E0,2.576742E0,2.0526202E0,1.9879843E1,2.453767E1,2.3805592E2,1.3860681E1,1.1810214E1,4.5735283E1,2.3842831E2,5.217375E0,1.1925513E1,5.757128E0,1.6562356E0,2.1542011E1,1.414481E0,1.1158123E0,3.3651836E0,2.1172487E1,2.2622272E2,1.1833203E1,5.869476E0,7.9912047E0,5.172956E0,6.637258E0,1.5174675E1,3.0560606E1,7.0823555E1,1.6760477E2,1.0205259E0,4.196849E0,1.0581583E1,1.3439301E0,3.2118337E0,2.5452938E0,1.7296841E0,1.6354994E0,9.296163E0,1.1876324E1,1.6435342E2,6.18693E1,5.856781E0,5.9764223E0,1.3013399E0,4.568136E0,2.8514915E0,5.1397133E0,2.8441682E0,2.328788E0,2.4128308E0,4.224427E0,1.27064495E1,2.468226E0,1.0431704E1,2.0128902E1,5.730147E1,1.3522082E1,1.9838581E0,1.6562091E2,1.9653804E0,2.2314687E0,1.145806E0,2.0660279E0,1.4411801E0,1.1041136E0],"tree_param":{"num_deleted":"0","num_feature":"8","num_nodes":"79","size_leaf_vector":"1"}},{"base_weights":[1.2539845E-2,-3.4856245E-1,4.8345175E-1,-6.522652E-1,-3.0035537E-1,4.618011E-1,8.761624E-1,-3.2439545E-1,-6.791778E-1,-3.3325586E-1,5.2809585E-3,7.213365E-1,4.405705E-1,9.3669035E-2,3.886547E-1,-5.9468728E-2,8.863266E-3,-8.0827124E-2,-5.48207E-1,-3.6044377E-1,-2.2514631E-1,5.093615E-2,-3.125838E-1,1.0540836E-1,8.0116457E-1,1.4825688E-1,4.6751162E-1,2.2036568E-3,5.5171438E-2,2.4104884E-2,-6.4017934E-1,-6.629896E-1,-3.396157E-1,1.3187423E-1,-3.2286376E-1,-8.73224E-3,4.5046225E-1,-5.548283E-2,1.0201497E-3,5.7083804E-2,-4.4794317E-2,2.8273998E-2,8.411595E-2,2.9095776E-2,4.9789116E-1,6.0649776E-1,4.196632E-1,-3.4757715E-2,3.8649693E-2,-8.371842E-2,-4.3535974E-2,-2.5847608E-2,-7.252494E-2,6.537164E-3,-3.6281966E-2,7.19036E-2,-1.3064468E-2,-8.974396E-2,-2.133481E-2,7.0490413E-3,-2.3134675E-2,6.495642E-2,1.1263699E-2,2.0469159E-2,-7.973125E-2,5.9658803E-2,2.8187819E-3,7.0458554E-2,3.4304276E-2,-1.3244324E-3,4.3684524E-2],"categories":[],"categories_nodes":[],"categories_segments":[],"categories_sizes":[],"default_left":[0,0,0,0,0,0,0,0,0,0,0,0,0,0,0,0,0,0,0,0,0,0,0,0,0,0,0,0,0,0,0,0,0,0,0,0,0,0,0,0,0,0,0,0,0,0,0,0,0,0,0,0,0,0,0,0,0,0,0,0,0,0,0,0,0,0,0,0,0,0,0],"id":22,"left_children":[1,3,5,7,9,11,13,15,17,19,21,23,25,-1,27,-1,-1,-1,29,31,33,35,37,39,41,43,45,-1,-1,47,49,51,53,55,57,59,61,-1,-1,-1,-1,-1,-1,63,65,67,69,-1,-1,-1,-1,-1,-1,-1,-1,-1,-1,-1,-1,-1,-1,-1,-1,-1,-1,-1,-1,-1,-1,-1,-1],"loss_changes":[1.06794174E2,5.0084877E0,1.9127998E0,2.0182991E-1,3.105259E0,1.117199E0,2.329731E-2,6.715751E-1,2.8897095E-1,7.3789406E-1,4.6549243E-1,8.066673E-1,1.8468018E0,0E0,1.7668784E-1,0E0,0E0,0E0,1.3103542E0,1.1674347E0,2.0890484E0,6.70189E-1,3.2084143E-1,1.0878211E0,9.169865E-2,9.0195024E-1,1.2238998E0,0E0,0E0,7.2292733E-1,4.922123E-1,1.4457417E-1,1.9859848E0,2.1463635E0,2.7247643E0,4.6245566E-1,1.7238212E-1,0E0,0E0,0E0,0E0,0E0,0E0,2.6979613E0,2.3950458E-1,1.171524E0,1.260046E0,0E0,0E0,0E0,0E0,0E0,0E0,0E0,0E0,0E0,0E0,0E0,0E0,0E0,0E0,0E0,0E0,0E0,0E0,0E0,0E0,0E0,0E0,0E0,0E0],"parents":[2147483647,0,0,1,1,2,2,3,3,4,4,5,5,6,6,7,7,8,8,9,9,10,10,11,11,12,12,14,14,18,18,19,19,20,20,21,21,22,22,23,23,24,24,25,25,26,26,29,29,30,30,31,31,32,32,33,33,34,34,35,35,36,36,43,43,44,44,45,45,46,46],"right_children":[2,4,6,8,10,12,14,16,18,20,22,24,26,-1,28,-1,-1,-1,30,32,34,36,38,40,42,44,46,-1,-1,48,50,52,54,56,58,60,62,-1,-1,-1,-1,-1,-1,64,66,68,70,-1,-1,-1,-1,-1,-1,-1,-1,-1,-1,-1,-1,-1,-1,-1,-1,-1,-1,-1,-1,-1,-1,-1,-1],"split_conditions":[5.38358E0,3.1080031E0,5.8530874E0,2.8869903E-1,1E0,5.448107E0,6.546023E-1,3.1031806E0,5.186273E-1,6.688716E-1,6.953487E-1,3.3156273E-1,5.483959E0,9.3669035E-2,7.015111E-1,-5.9468728E-2,8.863266E-3,-8.0827124E-2,5.440175E-1,3.1225605E0,6.846872E-1,6.477416E-1,3.268508E0,2.9942065E-1,5.392289E0,6.291366E-1,3.8947153E-1,2.2036568E-3,5.5171438E-2,5.2498937E-1,3.1002946E0,3.1089694E0,3.1600568E0,3.1700745E0,6.9157445E-1,5.549851E-1,6.6563886E-1,-5.548283E-2,1.0201497E-3,5.7083804E-2,-4.4794317E-2,2.8273998E-2,8.411595E-2,5.6325555E-1,7.2330654E-1,5.785363E0,3.9928436E-1,-3.4757715E-2,3.8649693E-2,-8.371842E-2,-4.3535974E-2,-2.5847608E-2,-7.252494E-2,6.537164E-3,-3.6281966E-2,7.19036E-2,-1.3064468E-2,-8.974396E-2,-2.133481E-2,7.0490413E-3,-2.3134675E-2,6.495642E-2,1.1263699E-2,2.0469159E-2,-7.973125E-2,5.9658803E-2,2.8187819E-3,7.0458554E-2,3.4304276E-2,-1.3244324E-3,4.3684524E-2],"split_indices":[0,0,0,1,7,0,1,0,1,1,1,1,0,0,1,0,0,0,1,0,1,1,0,1,0,1,1,0,0,1,0,0,0,0,1,1,1,0,0,0,0,0,0,1,1,0,1,0,0,0,0,0,0,0,0,0,0,0,0,0,0,0,0,0,0,0,0,0,0,0,0],"split_type":[0,0,0,0,0,0,0,0,0,0,0,0,0,0,0,0,0,0,0,0,0,0,0,0,0,0,0,0,0,0,0,0,0,0,0,0,0,0,0,0,0,0,0,0,0,0,0,0,0,0,0,0,0,0,0,0,0,0,0,0,0,0,0,0,0,0,0,0,0,0,0],"sum_hessian":[6.260351E2,3.5447678E2,2.715583E2,4.684221E1,3.0763458E2,2.5943143E2,1.2126864E1,4.5435047E0,4.2298706E1,2.7765573E2,2.9978851E1,1.7123785E1,2.4230763E2,9.967886E0,2.1589782E0,2.4804428E0,2.063062E0,1.8697674E1,2.3601032E1,2.1999597E2,5.765975E1,2.6948036E1,3.0308146E0,2.230947E0,1.48928385E1,2.0996517E1,2.2131113E2,1.0140853E0,1.1448929E0,3.3698092E0,2.0231222E1,1.2183824E1,2.0781215E2,1.2315241E1,4.5344513E1,2.4297413E1,2.6506245E0,1.3207437E0,1.7100711E0,1.1945759E0,1.0363712E0,1.6445936E0,1.3248245E1,1.646738E1,4.529136E0,5.368782E1,1.676233E2,1.6837631E0,1.686046E0,8.738609E0,1.1492613E1,2.3122542E0,9.87157E0,1.1162978E1,1.9664917E2,3.267659E0,9.047582E0,6.1073866E0,3.9237125E1,1.8424109E1,5.873304E0,1.0871289E0,1.5634958E0,1.4202034E1,2.2653468E0,3.5194669E0,1.0096693E0,3.7902004E1,1.5785816E1,6.4077163E0,1.6121559E2],"tree_param":{"num_deleted":"0","num_feature":"8","num_nodes":"71","size_leaf_vector":"1"}},{"base_weights":[1.1867515E-2,-3.215397E-1,4.5678556E-1,-6.205418E-1,-2.7542415E-1,4.3512332E-1,8.6253333E-1,-6.5641487E-1,-3.374154E-1,-3.0610275E-1,5.02855E-3,6.9792455E-1,4.1405424E-1,9.264027E-2,3.7556684E-1,-3.0608013E-1,-6.9220334E-1,1.0924184E-1,-5.4405075E-1,-3.314667E-1,-2.0602952E-1,4.0431507E-2,-3.7678745E-2,1.0005119E-1,7.800897E-1,1.3595307E-1,4.4044045E-1,2.0951487E-3,5.374628E-2,-5.6796152E-2,8.238807E-3,-5.3486186E-1,-9.0406254E-2,-1.5966346E-2,3.303005E-2,-7.816093E-2,-1.0933445E-2,-6.268358E-1,-3.1152397E-1,1.2256419E-1,-2.9753098E-1,-3.208793E-2,2.2208981E-1,5.6653958E-2,-4.498258E-2,2.6951138E-2,8.2145385E-2,2.3435337E-2,4.766157E-1,5.798666E-1,3.9324176E-1,-6.733077E-2,8.285453E-3,-2.432899E-2,-6.870292E-2,5.9195505E-3,-3.3322763E-2,6.518104E-2,-1.1939733E-2,-8.532201E-2,-1.9456362E-2,6.402787E-3,-5.6961995E-2,-1.5613633E-2,6.899508E-2,1.6752524E-2,-8.330818E-2,6.847249E-2,1.6688805E-2,6.799751E-2,3.2028448E-2,6.1154314E-3,4.1453447E-2],"categories":[],"categories_nodes":[],"categories_segments":[],"categories_sizes":[],"default_left":[0,0,0,0,0,0,0,0,0,0,0,0,0,0,0,0,0,0,0,0,0,0,0,0,0,0,0,0,0,0,0,0,0,0,0,0,0,0,0,0,0,0,0,0,0,0,0,0,0,0,0,0,0,0,0,0,0,0,0,0,0,0,0,0,0,0,0,0,0,0,0,0,0],"id":23,"left_children":[1,3,5,7,9,11,13,15,17,19,21,23,25,-1,27,29,31,33,35,37,39,41,-1,43,45,47,49,-1,-1,-1,-1,51,-1,-1,-1,-1,-1,53,55,57,59,61,63,-1,-1,-1,-1,65,67,69,71,-1,-1,-1,-1,-1,-1,-1,-1,-1,-1,-1,-1,-1,-1,-1,-1,-1,-1,-1,-1,-1,-1],"loss_changes":[9.048245E1,4.637211E0,1.9211807E0,2.4365044E-1,2.6163101E0,1.0955696E0,3.2276154E-2,2.844906E-1,7.246749E-1,6.270733E-1,4.3359712E-1,7.6200867E-1,1.6568832E0,0E0,1.666677E-1,6.024609E-1,6.873703E-1,2.37761E-1,4.407246E-1,1.0824738E0,1.7814686E0,3.9215288E-1,0E0,1.0790919E0,9.302521E-2,8.213881E-1,1.1752052E0,0E0,0E0,0E0,0E0,1.9890122E0,0E0,0E0,0E0,0E0,0E0,1.267848E-1,1.6706467E0,1.78732E0,2.4481645E0,1.1608042E0,1.6056576E0,0E0,0E0,0E0,0E0,2.2844381E0,2.3000264E-1,1.1288586E0,1.1230755E0,0E0,0E0,0E0,0E0,0E0,0E0,0E0,0E0,0E0,0E0,0E0,0E0,0E0,0E0,0E0,0E0,0E0,0E0,0E0,0E0,0E0,0E0],"parents":[2147483647,0,0,1,1,2,2,3,3,4,4,5,5,6,6,7,7,8,8,9,9,10,10,11,11,12,12,14,14,15,15,16,16,17,17,18,18,19,19,20,20,21,21,23,23,24,24,25,25,26,26,31,31,37,37,38,38,39,39,40,40,41,41,42,42,47,47,48,48,49,49,50,50],"right_children":[2,4,6,8,10,12,14,16,18,20,22,24,26,-1,28,30,32,34,36,38,40,42,-1,44,46,48,50,-1,-1,-1,-1,52,-1,-1,-1,-1,-1,54,56,58,60,62,64,-1,-1,-1,-1,66,68,70,72,-1,-1,-1,-1,-1,-1,-1,-1,-1,-1,-1,-1,-1,-1,-1,-1,-1,-1,-1,-1,-1,-1],"split_conditions":[5.38358E0,3.1080031E0,5.8530874E0,7.036679E-1,1E0,5.448107E0,6.546023E-1,2.8869903E-1,7.142885E-1,6.688716E-1,7.196882E-1,3.3156273E-1,5.483959E0,9.264027E-2,7.015111E-1,3.1031806E0,3.101256E0,3.1002946E0,3.101256E0,3.1225605E0,6.846872E-1,5.77501E-1,-3.7678745E-2,3.026242E-1,5.392289E0,6.291366E-1,3.8947153E-1,2.0951487E-3,5.374628E-2,-5.6796152E-2,8.238807E-3,3.1002946E0,-9.0406254E-2,-1.5966346E-2,3.303005E-2,-7.816093E-2,-1.0933445E-2,3.1089694E0,3.1600568E0,3.1700745E0,6.9157445E-1,5.549851E-1,3.3416874E0,5.6653958E-2,-4.498258E-2,2.6951138E-2,8.2145385E-2,5.8914775E-1,6.9157445E-1,5.785363E0,4.0450495E-1,-6.733077E-2,8.285453E-3,-2.432899E-2,-6.870292E-2,5.9195505E-3,-3.3322763E-2,6.518104E-2,-1.1939733E-2,-8.532201E-2,-1.9456362E-2,6.402787E-3,-5.6961995E-2,-1.5613633E-2,6.899508E-2,1.6752524E-2,-8.330818E-2,6.847249E-2,1.6688805E-2,6.799751E-2,3.2028448E-2,6.1154314E-3,4.1453447E-2],"split_indices":[0,0,0,1,7,0,1,1,1,1,1,1,0,0,1,0,0,0,0,0,1,1,0,1,0,1,1,0,0,0,0,0,0,0,0,0,0,0,0,0,1,1,0,0,0,0,0,1,1,0,1,0,0,0,0,0,0,0,0,0,0,0,0,0,0,0,0,0,0,0,0,0,0],"split_type":[0,0,0,0,0,0,0,0,0,0,0,0,0,0,0,0,0,0,0,0,0,0,0,0,0,0,0,0,0,0,0,0,0,0,0,0,0,0,0,0,0,0,0,0,0,0,0,0,0,0,0,0,0,0,0,0,0,0,0,0,0,0,0,0,0,0,0,0,0,0,0,0,0],"sum_hessian":[6.07981E2,3.477018E2,2.602792E2,4.4796413E1,3.0290543E2,2.4905496E2,1.1224253E1,3.8588654E1,6.2077613E0,2.7295547E2,2.994993E1,1.6100681E1,2.3295428E2,9.125038E0,2.0992146E0,4.462042E0,3.412661E1,2.1125858E0,4.0951753E0,2.1591798E2,5.7037502E1,2.8226778E1,1.7231516E0,2.2133012E0,1.3887382E1,2.0720457E1,2.1223383E2,1.0119851E0,1.0872295E0,2.3892813E0,2.0727608E0,2.1605474E1,1.2521136E1,1.0784479E0,1.034138E0,2.1320848E0,1.9630907E0,1.1731555E1,2.0418642E2,1.2349467E1,4.4688038E1,2.0761845E1,7.464932E0,1.1810523E0,1.0322489E0,1.6040004E0,1.22833805E1,1.6379314E1,4.341143E0,5.082114E1,1.6141269E2,1.7576206E1,4.0292673E0,2.275311E0,9.456244E0,1.1197343E1,1.9298907E2,3.3431292E0,9.006338E0,5.8469877E0,3.884105E1,1.8359821E1,2.402024E0,4.496316E0,2.968616E0,1.4709227E1,1.6700879E0,1.8723558E0,2.4687872E0,3.5507923E1,1.5313218E1,9.959138E0,1.5145355E2],"tree_param":{"num_deleted":"0","num_feature":"8","num_nodes":"73","size_leaf_vector":"1"}},{"base_weights":[1.1130497E-2,-2.9658112E-1,4.307426E-1,-5.78342E-1,-2.5039175E-1,4.002273E-1,7.233082E-1,-7.9355186E-1,-5.0572443E-1,-2.9334995E-1,-7.695777E-2,6.7445296E-1,3.7768668E-1,7.8600204E-1,1.1943352E-1,-2.7088461E-2,-8.855204E-1,9.973577E-3,-5.3075117E-1,-2.7419633E-1,-5.7519686E-1,-3.708485E-1,3.1926145E-3,9.500575E-2,7.5876284E-1,1.2511277E-1,4.0371588E-1,1.9497048E-2,8.203457E-1,2.930919E-3,1.4710096E-2,-9.691074E-2,-2.5961662E-2,-3.8607383E-1,-6.290757E-1,-3.0177972E-1,2.081096E-1,-9.281284E-1,-2.4651566E-1,-1.1931192E-1,-9.2317574E-2,2.82622E-1,-1.4217317E-1,5.5171717E-2,-4.1775193E-2,2.568439E-2,8.014355E-2,-3.17131E-1,2.040308E-1,5.386852E-1,3.5952905E-1,8.549284E-2,3.4471657E-2,-5.5230718E-2,1.3076789E-3,-7.280787E-2,1.5055678E-2,-2.5288552E-2,-4.229637E-2,5.4045778E-2,-1.5931142E-2,-2.819523E-2,-1.0294038E-1,3.0087873E-2,-5.6189995E-2,-2.8335491E-2,6.364893E-2,4.6777558E-3,1.17204465E-1,-5.000586E-2,6.04045E-3,1.46469325E-2,-6.280299E-2,7.691299E-2,5.8865757E-3,6.549575E-2,1.7605685E-2,2.3649973E-3,3.8239256E-2],"categories":[],"categories_nodes":[],"categories_segments":[],"categories_sizes":[],"default_left":[0,0,0,0,0,0,0,0,0,0,0,0,0,0,0,0,0,0,0,0,0,0,0,0,0,0,0,0,0,0,0,0,0,0,0,0,0,0,0,0,0,0,0,0,0,0,0,0,0,0,0,0,0,0,0,0,0,0,0,0,0,0,0,0,0,0,0,0,0,0,0,0,0,0,0,0,0,0,0],"id":24,"left_children":[1,3,5,7,9,11,13,15,17,19,21,23,25,27,29,-1,31,-1,33,35,37,39,41,43,45,47,49,-1,51,-1,-1,-1,-1,53,55,57,59,61,63,65,-1,67,69,-1,-1,-1,-1,71,73,75,77,-1,-1,-1,-1,-1,-1,-1,-1,-1,-1,-1,-1,-1,-1,-1,-1,-1,-1,-1,-1,-1,-1,-1,-1,-1,-1,-1,-1],"loss_changes":[7.662059E1,4.3109684E0,1.9517708E0,3.4034634E-1,2.182125E0,1.164299E0,7.5691986E-1,2.5120926E-1,6.3238907E-1,1.1207085E0,1.4168918E0,7.1758795E-1,1.3590698E0,2.4967003E-1,3.8992837E-3,0E0,1.7985725E-1,0E0,2.8178024E-1,3.0382595E0,1.4136038E0,1.6802695E0,1.9986058E0,9.7899896E-1,9.3325615E-2,8.1440085E-1,9.628811E-1,0E0,1.386261E-2,0E0,0E0,0E0,0E0,1.1691732E0,1.6818552E0,1.1489792E0,1.6358223E0,1.3288164E-1,1.6697721E0,1.4205692E0,0E0,3.47628E0,2.377767E0,0E0,0E0,0E0,0E0,6.172424E-1,1.4999245E0,1.816762E0,1.1359787E0,0E0,0E0,0E0,0E0,0E0,0E0,0E0,0E0,0E0,0E0,0E0,0E0,0E0,0E0,0E0,0E0,0E0,0E0,0E0,0E0,0E0,0E0,0E0,0E0,0E0,0E0,0E0,0E0],"parents":[2147483647,0,0,1,1,2,2,3,3,4,4,5,5,6,6,7,7,8,8,9,9,10,10,11,11,12,12,13,13,14,14,16,16,18,18,19,19,20,20,21,21,22,22,23,23,24,24,25,25,26,26,28,28,33,33,34,34,35,35,36,36,37,37,38,38,39,39,41,41,42,42,47,47,48,48,49,49,50,50],"right_children":[2,4,6,8,10,12,14,16,18,20,22,24,26,28,30,-1,32,-1,34,36,38,40,42,44,46,48,50,-1,52,-1,-1,-1,-1,54,56,58,60,62,64,66,-1,68,70,-1,-1,-1,-1,72,74,76,78,-1,-1,-1,-1,-1,-1,-1,-1,-1,-1,-1,-1,-1,-1,-1,-1,-1,-1,-1,-1,-1,-1,-1,-1,-1,-1,-1,-1],"split_conditions":[5.38358E0,3.1089694E0,5.8258085E0,3.0983734E0,3.2932653E0,5.448107E0,7.060767E-1,3.095496E0,2.6664603E-1,7.2512287E-1,4.0588212E-1,3.3156273E-1,5.483959E0,2.839637E-1,7.2330654E-1,-2.7088461E-2,7.015111E-1,9.973577E-3,3.101256E0,7.036679E-1,7.369129E-1,3.7555394E-1,5.4246324E-1,3.026242E-1,5.392289E0,2.912761E-1,3.8947153E-1,1.9497048E-2,6.546023E-1,2.930919E-3,1.4710096E-2,-9.691074E-2,-2.5961662E-2,3.1002946E0,7.060767E-1,3.2118194E0,7.174096E-1,3.1225605E0,7.433674E-1,3.6215726E-1,-9.2317574E-2,5.186273E-1,5.958763E-1,5.5171717E-2,-4.1775193E-2,2.568439E-2,8.014355E-2,5.474952E0,3.6630413E-1,5.785363E0,4.0450495E-1,8.549284E-2,3.4471657E-2,-5.5230718E-2,1.3076789E-3,-7.280787E-2,1.5055678E-2,-2.5288552E-2,-4.229637E-2,5.4045778E-2,-1.5931142E-2,-2.819523E-2,-1.0294038E-1,3.0087873E-2,-5.6189995E-2,-2.8335491E-2,6.364893E-2,4.6777558E-3,1.17204465E-1,-5.000586E-2,6.04045E-3,1.46469325E-2,-6.280299E-2,7.691299E-2,5.8865757E-3,6.549575E-2,1.7605685E-2,2.3649973E-3,3.8239256E-2],"split_indices":[0,0,0,0,0,0,1,0,1,1,1,1,0,1,1,0,1,0,0,1,1,1,1,1,0,1,1,0,1,0,0,0,0,0,1,0,1,0,1,1,0,1,1,0,0,0,0,0,1,0,1,0,0,0,0,0,0,0,0,0,0,0,0,0,0,0,0,0,0,0,0,0,0,0,0,0,0,0,0],"split_type":[0,0,0,0,0,0,0,0,0,0,0,0,0,0,0,0,0,0,0,0,0,0,0,0,0,0,0,0,0,0,0,0,0,0,0,0,0,0,0,0,0,0,0,0,0,0,0,0,0,0,0,0,0,0,0,0,0,0,0,0,0,0,0,0,0,0,0,0,0,0,0,0,0,0,0,0,0,0,0],"sum_hessian":[5.914189E2,3.413742E2,2.500447E2,4.6457355E1,2.9491684E2,2.2857208E2,2.1472612E1,9.216242E0,3.7241116E1,2.3581578E2,5.9101067E1,1.5164266E1,2.1340782E2,1.9179785E1,2.2928293E0,1.9693898E0,7.2468524E0,1.359765E0,3.588135E1,2.2265738E2,1.3158396E1,1.1887129E1,4.7213936E1,2.196305E0,1.296796E1,2.048065E1,1.9292717E2,1.4199772E0,1.7759808E1,1.0222559E0,1.2705733E0,5.90935E0,1.3375027E0,1.6511873E1,1.9369476E1,2.1096637E2,1.1691013E1,5.4656696E0,7.6927257E0,9.003047E0,2.8840811E0,1.5833594E1,3.1380342E1,1.1214519E0,1.0748533E0,1.566117E0,1.1401843E1,2.6442444E0,1.7836405E1,4.4823135E1,1.4810403E2,1.58126135E1,1.9471931E0,1.1386187E1,5.1256866E0,1.7245636E1,2.1238408E0,1.5251698E2,5.8449383E1,5.8912096E0,5.7998033E0,1.2532798E0,4.21239E0,2.8288488E0,4.863877E0,7.9110794E0,1.091968E0,1.3347016E1,2.486579E0,1.0811552E1,2.056879E1,1.273755E0,1.3704896E0,2.7669394E0,1.5069466E1,3.33301E1,1.1493033E1,9.568667E0,1.3853537E2],"tree_param":{"num_deleted":"0","num_feature":"8","num_nodes":"79","size_leaf_vector":"1"}},{"base_weights":[1.050312E-2,-2.7285144E-1,4.0543103E-1,-5.621783E-1,-2.3059802E-1,3.8370207E-1,8.364662E-1,-7.6726025E-1,-4.858403E-1,-2.5882563E-1,1.797534E-2,6.5100217E-1,3.631409E-1,9.0662345E-2,3.531355E-2,-2.5582237E-2,-8.6154366E-1,9.367923E-3,-5.134016E-1,-3.1086725E-1,-2.1136917E-1,5.2011885E-2,-3.568089E-2,9.085609E-2,7.3717856E-1,1.1581735E-1,3.8794658E-1,-9.479427E-2,-2.473324E-2,-3.8057896E-1,-6.781809E-1,-2.2818805E-1,-4.613763E-1,1.8554705E-1,-2.5200978E-1,-2.8626893E-2,2.0703965E-1,5.3731263E-2,-3.8804263E-2,2.4472032E-2,7.8107856E-2,6.28176E-3,4.558151E-1,5.2668434E-1,3.4252343E-1,-5.228662E-2,-1.5436132E-2,6.379423E-3,-7.747942E-2,-3.3198725E-2,2.2173473E-3,-5.1238816E-2,1.453081E-2,-7.8579625E-3,4.6902165E-2,-1.12271726E-1,-2.3607101E-2,4.932888E-3,-6.958118E-2,-5.238825E-3,4.5766313E-2,1.652397E-2,-6.50812E-2,6.66182E-2,1.5321649E-2,6.295901E-2,2.7766747E-2,2.0225225E-2,3.8917203E-2],"categories":[],"categories_nodes":[],"categories_segments":[],"categories_sizes":[],"default_left":[0,0,0,0,0,0,0,0,0,0,0,0,0,0,0,0,0,0,0,0,0,0,0,0,0,0,0,0,0,0,0,0,0,0,0,0,0,0,0,0,0,0,0,0,0,0,0,0,0,0,0,0,0,0,0,0,0,0,0,0,0,0,0,0,0,0,0,0,0],"id":25,"left_children":[1,3,5,7,9,11,13,15,17,19,21,23,25,-1,-1,-1,27,-1,29,31,33,35,-1,37,39,41,43,-1,-1,45,47,49,51,53,55,57,59,-1,-1,-1,-1,61,63,65,67,-1,-1,-1,-1,-1,-1,-1,-1,-1,-1,-1,-1,-1,-1,-1,-1,-1,-1,-1,-1,-1,-1,-1,-1],"loss_changes":[6.4761765E1,3.9899807E0,1.9432831E0,2.886238E-1,2.0797205E0,1.0386581E0,4.452133E-2,2.4894047E-1,5.83375E-1,5.903492E-1,4.151993E-1,6.7203236E-1,1.2905903E0,0E0,0E0,0E0,1.792531E-1,0E0,4.4545364E-1,1.4449377E0,2.3384147E0,3.731843E-1,0E0,8.8880104E-1,9.265995E-2,7.892244E-1,1.0637188E0,0E0,0E0,5.655458E-1,9.862137E-1,2.148322E0,1.4111347E0,1.0679456E0,1.529314E0,1.0851488E0,6.854583E-1,0E0,0E0,0E0,0E0,1.8936677E0,2.2693813E-1,1.0253029E0,9.131851E-1,0E0,0E0,0E0,0E0,0E0,0E0,0E0,0E0,0E0,0E0,0E0,0E0,0E0,0E0,0E0,0E0,0E0,0E0,0E0,0E0,0E0,0E0,0E0,0E0],"parents":[2147483647,0,0,1,1,2,2,3,3,4,4,5,5,6,6,7,7,8,8,9,9,10,10,11,11,12,12,16,16,18,18,19,19,20,20,21,21,23,23,24,24,25,25,26,26,29,29,30,30,31,31,32,32,33,33,34,34,35,35,36,36,41,41,42,42,43,43,44,44],"right_children":[2,4,6,8,10,12,14,16,18,20,22,24,26,-1,-1,-1,28,-1,30,32,34,36,-1,38,40,42,44,-1,-1,46,48,50,52,54,56,58,60,-1,-1,-1,-1,62,64,66,68,-1,-1,-1,-1,-1,-1,-1,-1,-1,-1,-1,-1,-1,-1,-1,-1,-1,-1,-1,-1,-1,-1,-1,-1],"split_conditions":[5.38358E0,3.1080031E0,5.8530874E0,3.0983734E0,1E0,5.448107E0,6.546023E-1,3.095496E0,2.6664603E-1,5.28509E-1,7.196882E-1,3.3156273E-1,5.483959E0,9.0662345E-2,3.531355E-2,-2.5582237E-2,7.015111E-1,9.367923E-3,3.1031806E0,4.3962377E-1,5.583156E-1,5.6325555E-1,-3.568089E-2,3.026242E-1,5.392289E0,6.291366E-1,3.8947153E-1,-9.479427E-2,-2.473324E-2,3.1002946E0,2.8869903E-1,3.8843983E-1,3.337923E0,5.4670244E-1,5.600189E-1,5.4987824E-1,3.3416874E0,5.3731263E-2,-3.8804263E-2,2.4472032E-2,7.8107856E-2,5.6325555E-1,6.9157445E-1,5.785363E0,4.658538E-1,-5.228662E-2,-1.5436132E-2,6.379423E-3,-7.747942E-2,-3.3198725E-2,2.2173473E-3,-5.1238816E-2,1.453081E-2,-7.8579625E-3,4.6902165E-2,-1.12271726E-1,-2.3607101E-2,4.932888E-3,-6.958118E-2,-5.238825E-3,4.5766313E-2,1.652397E-2,-6.50812E-2,6.66182E-2,1.5321649E-2,6.295901E-2,2.7766747E-2,2.0225225E-2,3.8917203E-2],"split_indices":[0,0,0,0,7,0,1,0,1,1,1,1,0,0,0,0,1,0,0,1,1,1,0,1,0,1,1,0,0,0,1,1,0,1,1,1,0,0,0,0,0,1,1,0,1,0,